\data\
ngram 1=57
ngram 2=178
ngram 3=958
ngram 4=6508
ngram 5=10099

\1-grams:
-2.1257398	<unk>	0
0	<s>	-2.2903771
-0.7981345	</s>	0
-1.3296425	one	-0.7829501
-1.3296425	two	-0.7829501
-1.3296425	three	-0.7829501
-1.3296425	four	-0.7829501
-1.3296425	five	-0.7829501
-1.3296425	six	-0.7829501
-1.3296425	seven	-0.7829501
-1.3296425	eight	-0.7829501
-1.3296425	nine	-0.7829501
-2.0976949	yes	-0.30103
-2.0976949	no	-0.30103
-1.819184	the	-0.30103
-2.0976949	form	-0.30103
-2.0976949	container	-0.30103
-2.0976949	departments	-0.30103
-2.0976949	picking	-0.30103
-2.0976949	repeat	-0.30103
-2.0976949	resume	-0.30103
-2.0976949	trip	-0.30103
-2.0976949	done	-0.30103
-2.0976949	successful	-0.30103
-2.0976949	finished	-0.30103
-2.0976949	tell	-0.30103
-2.0976949	me	-0.30103
-2.0976949	options	-0.30103
-2.0976949	all	-0.30103
-2.1257398	is	-0.30103
-2.0976949	good	-0.30103
-2.0976949	need	-0.30103
-2.0976949	new	-0.30103
-1.819184	cases	-0.30103
-2.0976949	looks	-0.30103
-2.0976949	fine	-0.30103
-2.0976949	What	-0.30103
-2.0976949	item	-0.30103
-2.0976949	count	-0.30103
-2.0976949	where	-0.30103
-2.0976949	next	-0.30103
-2.0976949	stop	-0.30103
-2.0976949	how	-0.30103
-2.0976949	many	-0.30103
-2.0976949	more	-0.30103
-2.0976949	when	-0.30103
-2.0976949	my	-0.30103
-2.0976949	shift	-0.30103
-2.0976949	ends	-0.30103
-2.0976949	which	-0.30103
-2.0976949	distribution	-0.30103
-2.0976949	it	-0.30103
-2.0976949	should	-0.30103
-2.0976949	go	-0.30103
-2.0976949	start	-0.30103
-2.0976949	order	-0.30103
-1.3296425	zero	-0.7781512

\2-grams:
-0.92211026	one </s>	0
-0.92211026	two </s>	0
-0.92211026	three </s>	0
-0.92211026	four </s>	0
-0.92211026	five </s>	0
-0.92211026	six </s>	0
-0.92211026	seven </s>	0
-0.92211026	eight </s>	0
-0.92211026	nine </s>	0
-0.23688227	yes </s>	0
-0.23688227	no </s>	0
-0.23688227	form </s>	0
-0.48203152	container </s>	0
-0.23688227	departments </s>	0
-0.23688227	picking </s>	0
-0.23688227	repeat </s>	0
-0.23688227	resume </s>	0
-0.23688227	done </s>	0
-0.23688227	successful </s>	0
-0.23688227	finished </s>	0
-0.23688227	options </s>	0
-0.23688227	good </s>	0
-0.23688227	cases </s>	0
-0.23688227	fine </s>	0
-0.23688227	count </s>	0
-0.23688227	stop </s>	0
-0.23688227	ends </s>	0
-0.23688227	go </s>	0
-0.23688227	order </s>	0
-0.95915276	zero </s>	0
-1.0023024	<s> one	-1.5571634
-1.045112	two one	-0.72699875
-1.045112	three one	-0.72699875
-1.045112	four one	-0.72699875
-1.045112	five one	-0.72699875
-1.045112	six one	-0.72699875
-1.045112	seven one	-0.72699875
-1.045112	eight one	-0.72699875
-1.045112	nine one	-0.72699875
-1.0403132	zero one	-0.72699875
-1.0023024	<s> two	-1.5571634
-1.045112	one two	-0.72699875
-1.045112	three two	-0.72699875
-1.045112	four two	-0.72699875
-1.045112	five two	-0.72699875
-1.045112	six two	-0.72699875
-1.045112	seven two	-0.72699875
-1.045112	eight two	-0.72699875
-1.045112	nine two	-0.72699875
-1.0403132	zero two	-0.72699875
-1.0023024	<s> three	-1.5571634
-1.045112	one three	-0.72699875
-1.045112	two three	-0.72699875
-1.045112	four three	-0.72699875
-1.045112	five three	-0.72699875
-1.045112	six three	-0.72699875
-1.045112	seven three	-0.72699875
-1.045112	eight three	-0.72699875
-1.045112	nine three	-0.72699875
-1.0403132	zero three	-0.72699875
-1.0023024	<s> four	-1.5571634
-1.045112	one four	-0.72699875
-1.045112	two four	-0.72699875
-1.045112	three four	-0.72699875
-1.045112	five four	-0.72699875
-1.045112	six four	-0.72699875
-1.045112	seven four	-0.72699875
-1.045112	eight four	-0.72699875
-1.045112	nine four	-0.72699875
-1.0403132	zero four	-0.72699875
-1.0014428	<s> five	-1.5580225
-1.045112	one five	-0.72699875
-1.045112	two five	-0.72699875
-1.045112	three five	-0.72699875
-1.045112	four five	-0.72699875
-1.045112	six five	-0.72699875
-1.045112	seven five	-0.72699875
-1.045112	eight five	-0.72699875
-1.045112	nine five	-0.72699875
-1.0403132	zero five	-0.72699875
-1.0014428	<s> six	-1.5580225
-1.045112	one six	-0.72699875
-1.045112	two six	-0.72699875
-1.045112	three six	-0.72699875
-1.045112	four six	-0.72699875
-1.045112	five six	-0.72699875
-1.045112	seven six	-0.72699875
-1.045112	eight six	-0.72699875
-1.045112	nine six	-0.72699875
-1.0403132	zero six	-0.72699875
-1.0023024	<s> seven	-1.5571634
-1.045112	one seven	-0.72699875
-1.045112	two seven	-0.72699875
-1.045112	three seven	-0.72699875
-1.045112	four seven	-0.72699875
-1.045112	five seven	-0.72699875
-1.045112	six seven	-0.72699875
-1.045112	eight seven	-0.72699875
-1.045112	nine seven	-0.72699875
-1.0403132	zero seven	-0.72699875
-1.0023024	<s> eight	-1.5571634
-1.045112	one eight	-0.72699875
-1.045112	two eight	-0.72699875
-1.045112	three eight	-0.72699875
-1.045112	four eight	-0.72699875
-1.045112	five eight	-0.72699875
-1.045112	six eight	-0.72699875
-1.045112	seven eight	-0.72699875
-1.045112	nine eight	-0.72699875
-1.0403132	zero eight	-0.72699875
-1.0014428	<s> nine	-1.5580225
-1.045112	one nine	-0.72699875
-1.045112	two nine	-0.72699875
-1.045112	three nine	-0.72699875
-1.045112	four nine	-0.72699875
-1.045112	five nine	-0.72699875
-1.045112	six nine	-0.72699875
-1.045112	seven nine	-0.72699875
-1.045112	eight nine	-0.72699875
-1.0403132	zero nine	-0.72699875
-3.8555477	<s> yes	-0.30103
-3.8555477	<s> no	-0.30103
-3.7538836	<s> the	-0.30103
-0.7588304	is the	-0.30103
-0.59517866	the form	-0.30103
-3.6234186	<s> container	-0.30103
-3.8555477	<s> departments	-0.30103
-3.8555477	<s> picking	-0.30103
-3.6234186	<s> repeat	-0.30103
-3.8555477	<s> resume	-0.30103
-3.8555477	<s> trip	-0.30103
-0.29757568	trip done	-0.30103
-3.8555477	<s> successful	-0.30103
-3.8555477	<s> finished	-0.30103
-3.8555477	<s> tell	-0.30103
-0.29757568	tell me	-0.30103
-0.29757568	me options	-0.30103
-3.8555477	<s> all	-0.30103
-0.29779088	all is	-0.30103
-0.29779088	What is	-0.30103
-0.29779088	where is	-0.30103
-0.76786965	is good	-0.30103
-3.8555477	<s> need	-0.30103
-0.29757568	need new	-0.30103
-0.29449373	new cases	-0.30103
-0.29449373	more cases	-0.30103
-0.59517866	container looks	-0.30103
-0.29757568	looks fine	-0.30103
-3.8555477	<s> What	-0.30103
-0.59517866	the item	-0.30103
-0.29757568	item count	-0.30103
-3.8555477	<s> where	-0.30103
-0.76786965	is next	-0.30103
-0.29757568	next stop	-0.30103
-3.8555477	<s> how	-0.30103
-0.29757568	how many	-0.30103
-0.29757568	many more	-0.30103
-3.8555477	<s> when	-0.30103
-0.29757568	when my	-0.30103
-0.29757568	my shift	-0.30103
-0.29757568	shift ends	-0.30103
-3.8555477	<s> which	-0.30103
-0.29757568	which distribution	-0.30103
-0.29757568	distribution it	-0.30103
-0.29757568	it should	-0.30103
-0.29757568	should go	-0.30103
-3.8555477	<s> start	-0.30103
-0.29757568	start order	-0.30103
-1.0031637	<s> zero	-1.5720967
-1.045112	one zero	-0.72699875
-1.045112	two zero	-0.72699875
-1.045112	three zero	-0.72699875
-1.045112	four zero	-0.72699875
-1.045112	five zero	-0.72699875
-1.045112	six zero	-0.72699875
-1.045112	seven zero	-0.72699875
-1.045112	eight zero	-0.72699875
-1.045112	nine zero	-0.72699875

\3-grams:
-2.36583	<s> one </s>	0
-0.9480338	two one </s>	0
-0.9480338	three one </s>	0
-0.9480338	four one </s>	0
-0.9480338	five one </s>	0
-0.9480338	six one </s>	0
-0.9480338	seven one </s>	0
-0.9480338	eight one </s>	0
-0.9480338	nine one </s>	0
-0.9480338	zero one </s>	0
-2.36583	<s> two </s>	0
-0.9480338	one two </s>	0
-0.9480338	three two </s>	0
-0.9480338	four two </s>	0
-0.9480338	five two </s>	0
-0.9480338	six two </s>	0
-0.9480338	seven two </s>	0
-0.9480338	eight two </s>	0
-0.9480338	nine two </s>	0
-0.9480338	zero two </s>	0
-2.36583	<s> three </s>	0
-0.9480338	one three </s>	0
-0.9480338	two three </s>	0
-0.9480338	four three </s>	0
-0.9480338	five three </s>	0
-0.9480338	six three </s>	0
-0.9480338	seven three </s>	0
-0.9480338	eight three </s>	0
-0.9480338	nine three </s>	0
-0.9480338	zero three </s>	0
-2.36583	<s> four </s>	0
-0.9480338	one four </s>	0
-0.9480338	two four </s>	0
-0.9480338	three four </s>	0
-0.9480338	five four </s>	0
-0.9480338	six four </s>	0
-0.9480338	seven four </s>	0
-0.9480338	eight four </s>	0
-0.9480338	nine four </s>	0
-0.9480338	zero four </s>	0
-2.366689	<s> five </s>	0
-0.9480338	one five </s>	0
-0.9480338	two five </s>	0
-0.9480338	three five </s>	0
-0.9480338	four five </s>	0
-0.9480338	six five </s>	0
-0.9480338	seven five </s>	0
-0.9480338	eight five </s>	0
-0.9480338	nine five </s>	0
-0.9480338	zero five </s>	0
-2.366689	<s> six </s>	0
-0.9480338	one six </s>	0
-0.9480338	two six </s>	0
-0.9480338	three six </s>	0
-0.9480338	four six </s>	0
-0.9480338	five six </s>	0
-0.9480338	seven six </s>	0
-0.9480338	eight six </s>	0
-0.9480338	nine six </s>	0
-0.9480338	zero six </s>	0
-2.36583	<s> seven </s>	0
-0.9480338	one seven </s>	0
-0.9480338	two seven </s>	0
-0.9480338	three seven </s>	0
-0.9480338	four seven </s>	0
-0.9480338	five seven </s>	0
-0.9480338	six seven </s>	0
-0.9480338	eight seven </s>	0
-0.9480338	nine seven </s>	0
-0.9480338	zero seven </s>	0
-2.36583	<s> eight </s>	0
-0.9480338	one eight </s>	0
-0.9480338	two eight </s>	0
-0.9480338	three eight </s>	0
-0.9480338	four eight </s>	0
-0.9480338	five eight </s>	0
-0.9480338	six eight </s>	0
-0.9480338	seven eight </s>	0
-0.9480338	nine eight </s>	0
-0.9480338	zero eight </s>	0
-2.366689	<s> nine </s>	0
-0.9480338	one nine </s>	0
-0.9480338	two nine </s>	0
-0.9480338	three nine </s>	0
-0.9480338	four nine </s>	0
-0.9480338	five nine </s>	0
-0.9480338	six nine </s>	0
-0.9480338	seven nine </s>	0
-0.9480338	eight nine </s>	0
-0.9480338	zero nine </s>	0
-0.102486774	<s> yes </s>	0
-0.102486774	<s> no </s>	0
-0.102486774	the form </s>	0
-0.38216868	<s> container </s>	0
-0.102486774	<s> departments </s>	0
-0.102486774	<s> picking </s>	0
-0.102486774	<s> repeat </s>	0
-0.102486774	<s> resume </s>	0
-0.102486774	trip done </s>	0
-0.102486774	<s> successful </s>	0
-0.102486774	<s> finished </s>	0
-0.102486774	me options </s>	0
-0.102486774	is good </s>	0
-0.102486774	new cases </s>	0
-0.102486774	more cases </s>	0
-0.102486774	looks fine </s>	0
-0.102486774	item count </s>	0
-0.102486774	next stop </s>	0
-0.102486774	shift ends </s>	0
-0.102486774	should go </s>	0
-0.102486774	start order </s>	0
-0.95515895	one zero </s>	0
-0.95515895	two zero </s>	0
-0.95515895	three zero </s>	0
-0.95515895	four zero </s>	0
-0.95515895	five zero </s>	0
-0.95515895	six zero </s>	0
-0.95515895	seven zero </s>	0
-0.95515895	eight zero </s>	0
-0.95515895	nine zero </s>	0
-0.956954	<s> two one	-0.66900676
-0.9698948	three two one	-0.447158
-0.9698948	four two one	-0.447158
-0.9698948	five two one	-0.447158
-0.9698948	six two one	-0.447158
-0.9698948	seven two one	-0.447158
-0.9698948	eight two one	-0.447158
-0.9698948	nine two one	-0.447158
-0.9698948	zero two one	-0.447158
-0.956954	<s> three one	-0.66900676
-0.9698948	two three one	-0.447158
-0.9698948	four three one	-0.447158
-0.9698948	five three one	-0.447158
-0.9698948	six three one	-0.447158
-0.9698948	seven three one	-0.447158
-0.9698948	eight three one	-0.447158
-0.9698948	nine three one	-0.447158
-0.9698948	zero three one	-0.447158
-0.956954	<s> four one	-0.66900676
-0.9698948	two four one	-0.447158
-0.9698948	three four one	-0.447158
-0.9698948	five four one	-0.447158
-0.9698948	six four one	-0.447158
-0.9698948	seven four one	-0.447158
-0.9698948	eight four one	-0.447158
-0.9698948	nine four one	-0.447158
-0.9698948	zero four one	-0.447158
-0.95781314	<s> five one	-0.66900676
-0.9698948	two five one	-0.447158
-0.9698948	three five one	-0.447158
-0.9698948	four five one	-0.447158
-0.9698948	six five one	-0.447158
-0.9698948	seven five one	-0.447158
-0.9698948	eight five one	-0.447158
-0.9698948	nine five one	-0.447158
-0.9698948	zero five one	-0.447158
-0.95781314	<s> six one	-0.66900676
-0.9698948	two six one	-0.447158
-0.9698948	three six one	-0.447158
-0.9698948	four six one	-0.447158
-0.9698948	five six one	-0.447158
-0.9698948	seven six one	-0.447158
-0.9698948	eight six one	-0.447158
-0.9698948	nine six one	-0.447158
-0.9698948	zero six one	-0.447158
-0.956954	<s> seven one	-0.66900676
-0.9698948	two seven one	-0.447158
-0.9698948	three seven one	-0.447158
-0.9698948	four seven one	-0.447158
-0.9698948	five seven one	-0.447158
-0.9698948	six seven one	-0.447158
-0.9698948	eight seven one	-0.447158
-0.9698948	nine seven one	-0.447158
-0.9698948	zero seven one	-0.447158
-0.956954	<s> eight one	-0.66900676
-0.9698948	two eight one	-0.447158
-0.9698948	three eight one	-0.447158
-0.9698948	four eight one	-0.447158
-0.9698948	five eight one	-0.447158
-0.9698948	six eight one	-0.447158
-0.9698948	seven eight one	-0.447158
-0.9698948	nine eight one	-0.447158
-0.9698948	zero eight one	-0.447158
-0.95781314	<s> nine one	-0.66900676
-0.9698948	two nine one	-0.447158
-0.9698948	three nine one	-0.447158
-0.9698948	four nine one	-0.447158
-0.9698948	five nine one	-0.447158
-0.9698948	six nine one	-0.447158
-0.9698948	seven nine one	-0.447158
-0.9698948	eight nine one	-0.447158
-0.9698948	zero nine one	-0.447158
-0.95633894	<s> zero one	-0.66900676
-0.9691346	two zero one	-0.447158
-0.9691346	three zero one	-0.447158
-0.9691346	four zero one	-0.447158
-0.9691346	five zero one	-0.447158
-0.9691346	six zero one	-0.447158
-0.9691346	seven zero one	-0.447158
-0.9691346	eight zero one	-0.447158
-0.9691346	nine zero one	-0.447158
-0.956954	<s> one two	-0.66900676
-0.9698948	three one two	-0.447158
-0.9698948	four one two	-0.447158
-0.9698948	five one two	-0.447158
-0.9698948	six one two	-0.447158
-0.9698948	seven one two	-0.447158
-0.9698948	eight one two	-0.447158
-0.9698948	nine one two	-0.447158
-0.9698948	zero one two	-0.447158
-0.956954	<s> three two	-0.66900676
-0.9698948	one three two	-0.447158
-0.9698948	four three two	-0.447158
-0.9698948	five three two	-0.447158
-0.9698948	six three two	-0.447158
-0.9698948	seven three two	-0.447158
-0.9698948	eight three two	-0.447158
-0.9698948	nine three two	-0.447158
-0.9698948	zero three two	-0.447158
-0.956954	<s> four two	-0.66900676
-0.9698948	one four two	-0.447158
-0.9698948	three four two	-0.447158
-0.9698948	five four two	-0.447158
-0.9698948	six four two	-0.447158
-0.9698948	seven four two	-0.447158
-0.9698948	eight four two	-0.447158
-0.9698948	nine four two	-0.447158
-0.9698948	zero four two	-0.447158
-0.95781314	<s> five two	-0.66900676
-0.9698948	one five two	-0.447158
-0.9698948	three five two	-0.447158
-0.9698948	four five two	-0.447158
-0.9698948	six five two	-0.447158
-0.9698948	seven five two	-0.447158
-0.9698948	eight five two	-0.447158
-0.9698948	nine five two	-0.447158
-0.9698948	zero five two	-0.447158
-0.95781314	<s> six two	-0.66900676
-0.9698948	one six two	-0.447158
-0.9698948	three six two	-0.447158
-0.9698948	four six two	-0.447158
-0.9698948	five six two	-0.447158
-0.9698948	seven six two	-0.447158
-0.9698948	eight six two	-0.447158
-0.9698948	nine six two	-0.447158
-0.9698948	zero six two	-0.447158
-0.956954	<s> seven two	-0.66900676
-0.9698948	one seven two	-0.447158
-0.9698948	three seven two	-0.447158
-0.9698948	four seven two	-0.447158
-0.9698948	five seven two	-0.447158
-0.9698948	six seven two	-0.447158
-0.9698948	eight seven two	-0.447158
-0.9698948	nine seven two	-0.447158
-0.9698948	zero seven two	-0.447158
-0.956954	<s> eight two	-0.66900676
-0.9698948	one eight two	-0.447158
-0.9698948	three eight two	-0.447158
-0.9698948	four eight two	-0.447158
-0.9698948	five eight two	-0.447158
-0.9698948	six eight two	-0.447158
-0.9698948	seven eight two	-0.447158
-0.9698948	nine eight two	-0.447158
-0.9698948	zero eight two	-0.447158
-0.95781314	<s> nine two	-0.66900676
-0.9698948	one nine two	-0.447158
-0.9698948	three nine two	-0.447158
-0.9698948	four nine two	-0.447158
-0.9698948	five nine two	-0.447158
-0.9698948	six nine two	-0.447158
-0.9698948	seven nine two	-0.447158
-0.9698948	eight nine two	-0.447158
-0.9698948	zero nine two	-0.447158
-0.95633894	<s> zero two	-0.66900676
-0.9691346	one zero two	-0.447158
-0.9691346	three zero two	-0.447158
-0.9691346	four zero two	-0.447158
-0.9691346	five zero two	-0.447158
-0.9691346	six zero two	-0.447158
-0.9691346	seven zero two	-0.447158
-0.9691346	eight zero two	-0.447158
-0.9691346	nine zero two	-0.447158
-0.956954	<s> one three	-0.66900676
-0.9698948	two one three	-0.447158
-0.9698948	four one three	-0.447158
-0.9698948	five one three	-0.447158
-0.9698948	six one three	-0.447158
-0.9698948	seven one three	-0.447158
-0.9698948	eight one three	-0.447158
-0.9698948	nine one three	-0.447158
-0.9698948	zero one three	-0.447158
-0.956954	<s> two three	-0.66900676
-0.9698948	one two three	-0.447158
-0.9698948	four two three	-0.447158
-0.9698948	five two three	-0.447158
-0.9698948	six two three	-0.447158
-0.9698948	seven two three	-0.447158
-0.9698948	eight two three	-0.447158
-0.9698948	nine two three	-0.447158
-0.9698948	zero two three	-0.447158
-0.956954	<s> four three	-0.66900676
-0.9698948	one four three	-0.447158
-0.9698948	two four three	-0.447158
-0.9698948	five four three	-0.447158
-0.9698948	six four three	-0.447158
-0.9698948	seven four three	-0.447158
-0.9698948	eight four three	-0.447158
-0.9698948	nine four three	-0.447158
-0.9698948	zero four three	-0.447158
-0.95781314	<s> five three	-0.66900676
-0.9698948	one five three	-0.447158
-0.9698948	two five three	-0.447158
-0.9698948	four five three	-0.447158
-0.9698948	six five three	-0.447158
-0.9698948	seven five three	-0.447158
-0.9698948	eight five three	-0.447158
-0.9698948	nine five three	-0.447158
-0.9698948	zero five three	-0.447158
-0.95781314	<s> six three	-0.66900676
-0.9698948	one six three	-0.447158
-0.9698948	two six three	-0.447158
-0.9698948	four six three	-0.447158
-0.9698948	five six three	-0.447158
-0.9698948	seven six three	-0.447158
-0.9698948	eight six three	-0.447158
-0.9698948	nine six three	-0.447158
-0.9698948	zero six three	-0.447158
-0.956954	<s> seven three	-0.66900676
-0.9698948	one seven three	-0.447158
-0.9698948	two seven three	-0.447158
-0.9698948	four seven three	-0.447158
-0.9698948	five seven three	-0.447158
-0.9698948	six seven three	-0.447158
-0.9698948	eight seven three	-0.447158
-0.9698948	nine seven three	-0.447158
-0.9698948	zero seven three	-0.447158
-0.956954	<s> eight three	-0.66900676
-0.9698948	one eight three	-0.447158
-0.9698948	two eight three	-0.447158
-0.9698948	four eight three	-0.447158
-0.9698948	five eight three	-0.447158
-0.9698948	six eight three	-0.447158
-0.9698948	seven eight three	-0.447158
-0.9698948	nine eight three	-0.447158
-0.9698948	zero eight three	-0.447158
-0.95781314	<s> nine three	-0.66900676
-0.9698948	one nine three	-0.447158
-0.9698948	two nine three	-0.447158
-0.9698948	four nine three	-0.447158
-0.9698948	five nine three	-0.447158
-0.9698948	six nine three	-0.447158
-0.9698948	seven nine three	-0.447158
-0.9698948	eight nine three	-0.447158
-0.9698948	zero nine three	-0.447158
-0.95633894	<s> zero three	-0.66900676
-0.9691346	one zero three	-0.447158
-0.9691346	two zero three	-0.447158
-0.9691346	four zero three	-0.447158
-0.9691346	five zero three	-0.447158
-0.9691346	six zero three	-0.447158
-0.9691346	seven zero three	-0.447158
-0.9691346	eight zero three	-0.447158
-0.9691346	nine zero three	-0.447158
-0.956954	<s> one four	-0.66900676
-0.9698948	two one four	-0.447158
-0.9698948	three one four	-0.447158
-0.9698948	five one four	-0.447158
-0.9698948	six one four	-0.447158
-0.9698948	seven one four	-0.447158
-0.9698948	eight one four	-0.447158
-0.9698948	nine one four	-0.447158
-0.9698948	zero one four	-0.447158
-0.956954	<s> two four	-0.66900676
-0.9698948	one two four	-0.447158
-0.9698948	three two four	-0.447158
-0.9698948	five two four	-0.447158
-0.9698948	six two four	-0.447158
-0.9698948	seven two four	-0.447158
-0.9698948	eight two four	-0.447158
-0.9698948	nine two four	-0.447158
-0.9698948	zero two four	-0.447158
-0.956954	<s> three four	-0.66900676
-0.9698948	one three four	-0.447158
-0.9698948	two three four	-0.447158
-0.9698948	five three four	-0.447158
-0.9698948	six three four	-0.447158
-0.9698948	seven three four	-0.447158
-0.9698948	eight three four	-0.447158
-0.9698948	nine three four	-0.447158
-0.9698948	zero three four	-0.447158
-0.95781314	<s> five four	-0.66900676
-0.9698948	one five four	-0.447158
-0.9698948	two five four	-0.447158
-0.9698948	three five four	-0.447158
-0.9698948	six five four	-0.447158
-0.9698948	seven five four	-0.447158
-0.9698948	eight five four	-0.447158
-0.9698948	nine five four	-0.447158
-0.9698948	zero five four	-0.447158
-0.95781314	<s> six four	-0.66900676
-0.9698948	one six four	-0.447158
-0.9698948	two six four	-0.447158
-0.9698948	three six four	-0.447158
-0.9698948	five six four	-0.447158
-0.9698948	seven six four	-0.447158
-0.9698948	eight six four	-0.447158
-0.9698948	nine six four	-0.447158
-0.9698948	zero six four	-0.447158
-0.956954	<s> seven four	-0.66900676
-0.9698948	one seven four	-0.447158
-0.9698948	two seven four	-0.447158
-0.9698948	three seven four	-0.447158
-0.9698948	five seven four	-0.447158
-0.9698948	six seven four	-0.447158
-0.9698948	eight seven four	-0.447158
-0.9698948	nine seven four	-0.447158
-0.9698948	zero seven four	-0.447158
-0.956954	<s> eight four	-0.66900676
-0.9698948	one eight four	-0.447158
-0.9698948	two eight four	-0.447158
-0.9698948	three eight four	-0.447158
-0.9698948	five eight four	-0.447158
-0.9698948	six eight four	-0.447158
-0.9698948	seven eight four	-0.447158
-0.9698948	nine eight four	-0.447158
-0.9698948	zero eight four	-0.447158
-0.95781314	<s> nine four	-0.66900676
-0.9698948	one nine four	-0.447158
-0.9698948	two nine four	-0.447158
-0.9698948	three nine four	-0.447158
-0.9698948	five nine four	-0.447158
-0.9698948	six nine four	-0.447158
-0.9698948	seven nine four	-0.447158
-0.9698948	eight nine four	-0.447158
-0.9698948	zero nine four	-0.447158
-0.95633894	<s> zero four	-0.66900676
-0.9691346	one zero four	-0.447158
-0.9691346	two zero four	-0.447158
-0.9691346	three zero four	-0.447158
-0.9691346	five zero four	-0.447158
-0.9691346	six zero four	-0.447158
-0.9691346	seven zero four	-0.447158
-0.9691346	eight zero four	-0.447158
-0.9691346	nine zero four	-0.447158
-0.956954	<s> one five	-0.66900676
-0.9698948	two one five	-0.447158
-0.9698948	three one five	-0.447158
-0.9698948	four one five	-0.447158
-0.9698948	six one five	-0.447158
-0.9698948	seven one five	-0.447158
-0.9698948	eight one five	-0.447158
-0.9698948	nine one five	-0.447158
-0.9698948	zero one five	-0.447158
-0.956954	<s> two five	-0.66900676
-0.9698948	one two five	-0.447158
-0.9698948	three two five	-0.447158
-0.9698948	four two five	-0.447158
-0.9698948	six two five	-0.447158
-0.9698948	seven two five	-0.447158
-0.9698948	eight two five	-0.447158
-0.9698948	nine two five	-0.447158
-0.9698948	zero two five	-0.447158
-0.956954	<s> three five	-0.66900676
-0.9698948	one three five	-0.447158
-0.9698948	two three five	-0.447158
-0.9698948	four three five	-0.447158
-0.9698948	six three five	-0.447158
-0.9698948	seven three five	-0.447158
-0.9698948	eight three five	-0.447158
-0.9698948	nine three five	-0.447158
-0.9698948	zero three five	-0.447158
-0.956954	<s> four five	-0.66900676
-0.9698948	one four five	-0.447158
-0.9698948	two four five	-0.447158
-0.9698948	three four five	-0.447158
-0.9698948	six four five	-0.447158
-0.9698948	seven four five	-0.447158
-0.9698948	eight four five	-0.447158
-0.9698948	nine four five	-0.447158
-0.9698948	zero four five	-0.447158
-0.9500938	<s> six five	-0.6766936
-0.9698948	one six five	-0.447158
-0.9698948	two six five	-0.447158
-0.9698948	three six five	-0.447158
-0.9698948	four six five	-0.447158
-0.9698948	seven six five	-0.447158
-0.9698948	eight six five	-0.447158
-0.9698948	nine six five	-0.447158
-0.9698948	zero six five	-0.447158
-0.956954	<s> seven five	-0.66900676
-0.9698948	one seven five	-0.447158
-0.9698948	two seven five	-0.447158
-0.9698948	three seven five	-0.447158
-0.9698948	four seven five	-0.447158
-0.9698948	six seven five	-0.447158
-0.9698948	eight seven five	-0.447158
-0.9698948	nine seven five	-0.447158
-0.9698948	zero seven five	-0.447158
-0.956954	<s> eight five	-0.66900676
-0.9698948	one eight five	-0.447158
-0.9698948	two eight five	-0.447158
-0.9698948	three eight five	-0.447158
-0.9698948	four eight five	-0.447158
-0.9698948	six eight five	-0.447158
-0.9698948	seven eight five	-0.447158
-0.9698948	nine eight five	-0.447158
-0.9698948	zero eight five	-0.447158
-0.9500938	<s> nine five	-0.6766936
-0.9698948	one nine five	-0.447158
-0.9698948	two nine five	-0.447158
-0.9698948	three nine five	-0.447158
-0.9698948	four nine five	-0.447158
-0.9698948	six nine five	-0.447158
-0.9698948	seven nine five	-0.447158
-0.9698948	eight nine five	-0.447158
-0.9698948	zero nine five	-0.447158
-0.95633894	<s> zero five	-0.66900676
-0.9691346	one zero five	-0.447158
-0.9691346	two zero five	-0.447158
-0.9691346	three zero five	-0.447158
-0.9691346	four zero five	-0.447158
-0.9691346	six zero five	-0.447158
-0.9691346	seven zero five	-0.447158
-0.9691346	eight zero five	-0.447158
-0.9691346	nine zero five	-0.447158
-0.956954	<s> one six	-0.66900676
-0.9698948	two one six	-0.447158
-0.9698948	three one six	-0.447158
-0.9698948	four one six	-0.447158
-0.9698948	five one six	-0.447158
-0.9698948	seven one six	-0.447158
-0.9698948	eight one six	-0.447158
-0.9698948	nine one six	-0.447158
-0.9698948	zero one six	-0.447158
-0.956954	<s> two six	-0.66900676
-0.9698948	one two six	-0.447158
-0.9698948	three two six	-0.447158
-0.9698948	four two six	-0.447158
-0.9698948	five two six	-0.447158
-0.9698948	seven two six	-0.447158
-0.9698948	eight two six	-0.447158
-0.9698948	nine two six	-0.447158
-0.9698948	zero two six	-0.447158
-0.956954	<s> three six	-0.66900676
-0.9698948	one three six	-0.447158
-0.9698948	two three six	-0.447158
-0.9698948	four three six	-0.447158
-0.9698948	five three six	-0.447158
-0.9698948	seven three six	-0.447158
-0.9698948	eight three six	-0.447158
-0.9698948	nine three six	-0.447158
-0.9698948	zero three six	-0.447158
-0.956954	<s> four six	-0.66900676
-0.9698948	one four six	-0.447158
-0.9698948	two four six	-0.447158
-0.9698948	three four six	-0.447158
-0.9698948	five four six	-0.447158
-0.9698948	seven four six	-0.447158
-0.9698948	eight four six	-0.447158
-0.9698948	nine four six	-0.447158
-0.9698948	zero four six	-0.447158
-0.95781314	<s> five six	-0.66900676
-0.9698948	one five six	-0.447158
-0.9698948	two five six	-0.447158
-0.9698948	three five six	-0.447158
-0.9698948	four five six	-0.447158
-0.9698948	seven five six	-0.447158
-0.9698948	eight five six	-0.447158
-0.9698948	nine five six	-0.447158
-0.9698948	zero five six	-0.447158
-0.956954	<s> seven six	-0.66900676
-0.9698948	one seven six	-0.447158
-0.9698948	two seven six	-0.447158
-0.9698948	three seven six	-0.447158
-0.9698948	four seven six	-0.447158
-0.9698948	five seven six	-0.447158
-0.9698948	eight seven six	-0.447158
-0.9698948	nine seven six	-0.447158
-0.9698948	zero seven six	-0.447158
-0.956954	<s> eight six	-0.66900676
-0.9698948	one eight six	-0.447158
-0.9698948	two eight six	-0.447158
-0.9698948	three eight six	-0.447158
-0.9698948	four eight six	-0.447158
-0.9698948	five eight six	-0.447158
-0.9698948	seven eight six	-0.447158
-0.9698948	nine eight six	-0.447158
-0.9698948	zero eight six	-0.447158
-0.95781314	<s> nine six	-0.66900676
-0.9698948	one nine six	-0.447158
-0.9698948	two nine six	-0.447158
-0.9698948	three nine six	-0.447158
-0.9698948	four nine six	-0.447158
-0.9698948	five nine six	-0.447158
-0.9698948	seven nine six	-0.447158
-0.9698948	eight nine six	-0.447158
-0.9698948	zero nine six	-0.447158
-0.95633894	<s> zero six	-0.66900676
-0.9691346	one zero six	-0.447158
-0.9691346	two zero six	-0.447158
-0.9691346	three zero six	-0.447158
-0.9691346	four zero six	-0.447158
-0.9691346	five zero six	-0.447158
-0.9691346	seven zero six	-0.447158
-0.9691346	eight zero six	-0.447158
-0.9691346	nine zero six	-0.447158
-0.956954	<s> one seven	-0.66900676
-0.9698948	two one seven	-0.447158
-0.9698948	three one seven	-0.447158
-0.9698948	four one seven	-0.447158
-0.9698948	five one seven	-0.447158
-0.9698948	six one seven	-0.447158
-0.9698948	eight one seven	-0.447158
-0.9698948	nine one seven	-0.447158
-0.9698948	zero one seven	-0.447158
-0.956954	<s> two seven	-0.66900676
-0.9698948	one two seven	-0.447158
-0.9698948	three two seven	-0.447158
-0.9698948	four two seven	-0.447158
-0.9698948	five two seven	-0.447158
-0.9698948	six two seven	-0.447158
-0.9698948	eight two seven	-0.447158
-0.9698948	nine two seven	-0.447158
-0.9698948	zero two seven	-0.447158
-0.956954	<s> three seven	-0.66900676
-0.9698948	one three seven	-0.447158
-0.9698948	two three seven	-0.447158
-0.9698948	four three seven	-0.447158
-0.9698948	five three seven	-0.447158
-0.9698948	six three seven	-0.447158
-0.9698948	eight three seven	-0.447158
-0.9698948	nine three seven	-0.447158
-0.9698948	zero three seven	-0.447158
-0.956954	<s> four seven	-0.66900676
-0.9698948	one four seven	-0.447158
-0.9698948	two four seven	-0.447158
-0.9698948	three four seven	-0.447158
-0.9698948	five four seven	-0.447158
-0.9698948	six four seven	-0.447158
-0.9698948	eight four seven	-0.447158
-0.9698948	nine four seven	-0.447158
-0.9698948	zero four seven	-0.447158
-0.95781314	<s> five seven	-0.66900676
-0.9698948	one five seven	-0.447158
-0.9698948	two five seven	-0.447158
-0.9698948	three five seven	-0.447158
-0.9698948	four five seven	-0.447158
-0.9698948	six five seven	-0.447158
-0.9698948	eight five seven	-0.447158
-0.9698948	nine five seven	-0.47712123
-0.9698948	zero five seven	-0.447158
-0.95781314	<s> six seven	-0.66900676
-0.9698948	one six seven	-0.447158
-0.9698948	two six seven	-0.447158
-0.9698948	three six seven	-0.447158
-0.9698948	four six seven	-0.447158
-0.9698948	five six seven	-0.447158
-0.9698948	eight six seven	-0.447158
-0.9698948	nine six seven	-0.447158
-0.9698948	zero six seven	-0.447158
-0.956954	<s> eight seven	-0.66900676
-0.9698948	one eight seven	-0.447158
-0.9698948	two eight seven	-0.447158
-0.9698948	three eight seven	-0.447158
-0.9698948	four eight seven	-0.447158
-0.9698948	five eight seven	-0.447158
-0.9698948	six eight seven	-0.447158
-0.9698948	nine eight seven	-0.447158
-0.9698948	zero eight seven	-0.447158
-0.95781314	<s> nine seven	-0.66900676
-0.9698948	one nine seven	-0.447158
-0.9698948	two nine seven	-0.447158
-0.9698948	three nine seven	-0.447158
-0.9698948	four nine seven	-0.447158
-0.9698948	five nine seven	-0.47712123
-0.9698948	six nine seven	-0.447158
-0.9698948	eight nine seven	-0.447158
-0.9698948	zero nine seven	-0.447158
-0.95633894	<s> zero seven	-0.66900676
-0.9691346	one zero seven	-0.447158
-0.9691346	two zero seven	-0.447158
-0.9691346	three zero seven	-0.447158
-0.9691346	four zero seven	-0.447158
-0.9691346	five zero seven	-0.447158
-0.9691346	six zero seven	-0.447158
-0.9691346	eight zero seven	-0.447158
-0.9691346	nine zero seven	-0.447158
-0.956954	<s> one eight	-0.66900676
-0.9698948	two one eight	-0.447158
-0.9698948	three one eight	-0.447158
-0.9698948	four one eight	-0.447158
-0.9698948	five one eight	-0.447158
-0.9698948	six one eight	-0.447158
-0.9698948	seven one eight	-0.447158
-0.9698948	nine one eight	-0.447158
-0.9698948	zero one eight	-0.447158
-0.956954	<s> two eight	-0.66900676
-0.9698948	one two eight	-0.447158
-0.9698948	three two eight	-0.447158
-0.9698948	four two eight	-0.447158
-0.9698948	five two eight	-0.447158
-0.9698948	six two eight	-0.447158
-0.9698948	seven two eight	-0.447158
-0.9698948	nine two eight	-0.447158
-0.9698948	zero two eight	-0.447158
-0.956954	<s> three eight	-0.66900676
-0.9698948	one three eight	-0.447158
-0.9698948	two three eight	-0.447158
-0.9698948	four three eight	-0.447158
-0.9698948	five three eight	-0.447158
-0.9698948	six three eight	-0.447158
-0.9698948	seven three eight	-0.447158
-0.9698948	nine three eight	-0.447158
-0.9698948	zero three eight	-0.447158
-0.956954	<s> four eight	-0.66900676
-0.9698948	one four eight	-0.447158
-0.9698948	two four eight	-0.447158
-0.9698948	three four eight	-0.447158
-0.9698948	five four eight	-0.447158
-0.9698948	six four eight	-0.447158
-0.9698948	seven four eight	-0.447158
-0.9698948	nine four eight	-0.447158
-0.9698948	zero four eight	-0.447158
-0.95781314	<s> five eight	-0.66900676
-0.9698948	one five eight	-0.447158
-0.9698948	two five eight	-0.447158
-0.9698948	three five eight	-0.447158
-0.9698948	four five eight	-0.447158
-0.9698948	six five eight	-0.447158
-0.9698948	seven five eight	-0.447158
-0.9698948	nine five eight	-0.447158
-0.9698948	zero five eight	-0.447158
-0.95781314	<s> six eight	-0.66900676
-0.9698948	one six eight	-0.447158
-0.9698948	two six eight	-0.447158
-0.9698948	three six eight	-0.447158
-0.9698948	four six eight	-0.447158
-0.9698948	five six eight	-0.447158
-0.9698948	seven six eight	-0.447158
-0.9698948	nine six eight	-0.447158
-0.9698948	zero six eight	-0.447158
-0.956954	<s> seven eight	-0.66900676
-0.9698948	one seven eight	-0.447158
-0.9698948	two seven eight	-0.447158
-0.9698948	three seven eight	-0.447158
-0.9698948	four seven eight	-0.447158
-0.9698948	five seven eight	-0.447158
-0.9698948	six seven eight	-0.447158
-0.9698948	nine seven eight	-0.447158
-0.9698948	zero seven eight	-0.447158
-0.95781314	<s> nine eight	-0.66900676
-0.9698948	one nine eight	-0.447158
-0.9698948	two nine eight	-0.447158
-0.9698948	three nine eight	-0.447158
-0.9698948	four nine eight	-0.447158
-0.9698948	five nine eight	-0.447158
-0.9698948	six nine eight	-0.447158
-0.9698948	seven nine eight	-0.447158
-0.9698948	zero nine eight	-0.447158
-0.95633894	<s> zero eight	-0.66900676
-0.9691346	one zero eight	-0.447158
-0.9691346	two zero eight	-0.447158
-0.9691346	three zero eight	-0.447158
-0.9691346	four zero eight	-0.447158
-0.9691346	five zero eight	-0.447158
-0.9691346	six zero eight	-0.447158
-0.9691346	seven zero eight	-0.447158
-0.9691346	nine zero eight	-0.447158
-0.956954	<s> one nine	-0.66900676
-0.9698948	two one nine	-0.447158
-0.9698948	three one nine	-0.447158
-0.9698948	four one nine	-0.447158
-0.9698948	five one nine	-0.447158
-0.9698948	six one nine	-0.447158
-0.9698948	seven one nine	-0.447158
-0.9698948	eight one nine	-0.447158
-0.9698948	zero one nine	-0.447158
-0.956954	<s> two nine	-0.66900676
-0.9698948	one two nine	-0.447158
-0.9698948	three two nine	-0.447158
-0.9698948	four two nine	-0.447158
-0.9698948	five two nine	-0.447158
-0.9698948	six two nine	-0.447158
-0.9698948	seven two nine	-0.447158
-0.9698948	eight two nine	-0.447158
-0.9698948	zero two nine	-0.447158
-0.956954	<s> three nine	-0.66900676
-0.9698948	one three nine	-0.447158
-0.9698948	two three nine	-0.447158
-0.9698948	four three nine	-0.447158
-0.9698948	five three nine	-0.447158
-0.9698948	six three nine	-0.447158
-0.9698948	seven three nine	-0.447158
-0.9698948	eight three nine	-0.447158
-0.9698948	zero three nine	-0.447158
-0.956954	<s> four nine	-0.66900676
-0.9698948	one four nine	-0.447158
-0.9698948	two four nine	-0.447158
-0.9698948	three four nine	-0.447158
-0.9698948	five four nine	-0.447158
-0.9698948	six four nine	-0.447158
-0.9698948	seven four nine	-0.447158
-0.9698948	eight four nine	-0.447158
-0.9698948	zero four nine	-0.447158
-0.9500938	<s> five nine	-0.6766936
-0.9698948	one five nine	-0.447158
-0.9698948	two five nine	-0.447158
-0.9698948	three five nine	-0.447158
-0.9698948	four five nine	-0.447158
-0.9698948	six five nine	-0.47712123
-0.9698948	seven five nine	-0.447158
-0.9698948	eight five nine	-0.447158
-0.9698948	zero five nine	-0.447158
-0.95781314	<s> six nine	-0.66900676
-0.9698948	one six nine	-0.447158
-0.9698948	two six nine	-0.447158
-0.9698948	three six nine	-0.447158
-0.9698948	four six nine	-0.447158
-0.9698948	five six nine	-0.447158
-0.9698948	seven six nine	-0.447158
-0.9698948	eight six nine	-0.447158
-0.9698948	zero six nine	-0.447158
-0.956954	<s> seven nine	-0.66900676
-0.9698948	one seven nine	-0.447158
-0.9698948	two seven nine	-0.447158
-0.9698948	three seven nine	-0.447158
-0.9698948	four seven nine	-0.447158
-0.9698948	five seven nine	-0.447158
-0.9698948	six seven nine	-0.447158
-0.9698948	eight seven nine	-0.447158
-0.9698948	zero seven nine	-0.447158
-0.956954	<s> eight nine	-0.66900676
-0.9698948	one eight nine	-0.447158
-0.9698948	two eight nine	-0.447158
-0.9698948	three eight nine	-0.447158
-0.9698948	four eight nine	-0.447158
-0.9698948	five eight nine	-0.447158
-0.9698948	six eight nine	-0.447158
-0.9698948	seven eight nine	-0.447158
-0.9698948	zero eight nine	-0.447158
-0.95633894	<s> zero nine	-0.66900676
-0.9691346	one zero nine	-0.447158
-0.9691346	two zero nine	-0.447158
-0.9691346	three zero nine	-0.447158
-0.9691346	four zero nine	-0.447158
-0.9691346	five zero nine	-0.447158
-0.9691346	six zero nine	-0.447158
-0.9691346	seven zero nine	-0.447158
-0.9691346	eight zero nine	-0.447158
-0.23126991	What is the	-0.30103
-0.20273495	<s> the form	-0.30103
-0.12378424	<s> trip done	-0.30103
-0.12378424	<s> tell me	-0.30103
-0.12378424	tell me options	-0.30103
-0.12385633	<s> all is	-0.30103
-0.12385633	<s> What is	-0.30103
-0.12385633	<s> where is	-0.30103
-0.23259944	all is good	-0.30103
-0.12378424	<s> need new	-0.30103
-0.12274903	need new cases	-0.30103
-0.12274903	many more cases	-0.30103
-0.4236628	<s> container looks	-0.30103
-0.12378424	container looks fine	-0.30103
-0.20273495	is the item	-0.30103
-0.12378424	the item count	-0.30103
-0.23259944	where is next	-0.30103
-0.12378424	is next stop	-0.30103
-0.12378424	<s> how many	-0.30103
-0.12378424	how many more	-0.30103
-0.12378424	<s> when my	-0.30103
-0.12378424	when my shift	-0.30103
-0.12378424	my shift ends	-0.30103
-0.12378424	<s> which distribution	-0.30103
-0.12378424	which distribution it	-0.30103
-0.12378424	distribution it should	-0.30103
-0.12378424	it should go	-0.30103
-0.12378424	<s> start order	-0.30103
-0.956954	<s> one zero	-0.66900676
-0.9698948	two one zero	-0.447158
-0.9698948	three one zero	-0.447158
-0.9698948	four one zero	-0.447158
-0.9698948	five one zero	-0.447158
-0.9698948	six one zero	-0.447158
-0.9698948	seven one zero	-0.447158
-0.9698948	eight one zero	-0.447158
-0.9698948	nine one zero	-0.447158
-0.956954	<s> two zero	-0.66900676
-0.9698948	one two zero	-0.447158
-0.9698948	three two zero	-0.447158
-0.9698948	four two zero	-0.447158
-0.9698948	five two zero	-0.447158
-0.9698948	six two zero	-0.447158
-0.9698948	seven two zero	-0.447158
-0.9698948	eight two zero	-0.447158
-0.9698948	nine two zero	-0.447158
-0.956954	<s> three zero	-0.66900676
-0.9698948	one three zero	-0.447158
-0.9698948	two three zero	-0.447158
-0.9698948	four three zero	-0.447158
-0.9698948	five three zero	-0.447158
-0.9698948	six three zero	-0.447158
-0.9698948	seven three zero	-0.447158
-0.9698948	eight three zero	-0.447158
-0.9698948	nine three zero	-0.447158
-0.956954	<s> four zero	-0.66900676
-0.9698948	one four zero	-0.447158
-0.9698948	two four zero	-0.447158
-0.9698948	three four zero	-0.447158
-0.9698948	five four zero	-0.447158
-0.9698948	six four zero	-0.447158
-0.9698948	seven four zero	-0.447158
-0.9698948	eight four zero	-0.447158
-0.9698948	nine four zero	-0.447158
-0.95781314	<s> five zero	-0.66900676
-0.9698948	one five zero	-0.447158
-0.9698948	two five zero	-0.447158
-0.9698948	three five zero	-0.447158
-0.9698948	four five zero	-0.447158
-0.9698948	six five zero	-0.447158
-0.9698948	seven five zero	-0.447158
-0.9698948	eight five zero	-0.447158
-0.9698948	nine five zero	-0.447158
-0.95781314	<s> six zero	-0.66900676
-0.9698948	one six zero	-0.447158
-0.9698948	two six zero	-0.447158
-0.9698948	three six zero	-0.447158
-0.9698948	four six zero	-0.447158
-0.9698948	five six zero	-0.447158
-0.9698948	seven six zero	-0.447158
-0.9698948	eight six zero	-0.447158
-0.9698948	nine six zero	-0.447158
-0.956954	<s> seven zero	-0.66900676
-0.9698948	one seven zero	-0.447158
-0.9698948	two seven zero	-0.447158
-0.9698948	three seven zero	-0.447158
-0.9698948	four seven zero	-0.447158
-0.9698948	five seven zero	-0.447158
-0.9698948	six seven zero	-0.447158
-0.9698948	eight seven zero	-0.447158
-0.9698948	nine seven zero	-0.447158
-0.956954	<s> eight zero	-0.66900676
-0.9698948	one eight zero	-0.447158
-0.9698948	two eight zero	-0.447158
-0.9698948	three eight zero	-0.447158
-0.9698948	four eight zero	-0.447158
-0.9698948	five eight zero	-0.447158
-0.9698948	six eight zero	-0.447158
-0.9698948	seven eight zero	-0.447158
-0.9698948	nine eight zero	-0.447158
-0.95781314	<s> nine zero	-0.66900676
-0.9698948	one nine zero	-0.447158
-0.9698948	two nine zero	-0.447158
-0.9698948	three nine zero	-0.447158
-0.9698948	four nine zero	-0.447158
-0.9698948	five nine zero	-0.447158
-0.9698948	six nine zero	-0.447158
-0.9698948	seven nine zero	-0.447158
-0.9698948	eight nine zero	-0.447158

\4-grams:
-0.36340076	three two one </s>	0
-0.36340076	four two one </s>	0
-0.36340076	five two one </s>	0
-0.36340076	six two one </s>	0
-0.36340076	seven two one </s>	0
-0.36340076	eight two one </s>	0
-0.36340076	nine two one </s>	0
-0.36340076	zero two one </s>	0
-0.36340076	two three one </s>	0
-0.36340076	four three one </s>	0
-0.36340076	five three one </s>	0
-0.36340076	six three one </s>	0
-0.36340076	seven three one </s>	0
-0.36340076	eight three one </s>	0
-0.36340076	nine three one </s>	0
-0.36340076	zero three one </s>	0
-0.36340076	two four one </s>	0
-0.36340076	three four one </s>	0
-0.36340076	five four one </s>	0
-0.36340076	six four one </s>	0
-0.36340076	seven four one </s>	0
-0.36340076	eight four one </s>	0
-0.36340076	nine four one </s>	0
-0.36340076	zero four one </s>	0
-0.36340076	two five one </s>	0
-0.36340076	three five one </s>	0
-0.36340076	four five one </s>	0
-0.36340076	six five one </s>	0
-0.36340076	seven five one </s>	0
-0.36340076	eight five one </s>	0
-0.36340076	nine five one </s>	0
-0.36340076	zero five one </s>	0
-0.36340076	two six one </s>	0
-0.36340076	three six one </s>	0
-0.36340076	four six one </s>	0
-0.36340076	five six one </s>	0
-0.36340076	seven six one </s>	0
-0.36340076	eight six one </s>	0
-0.36340076	nine six one </s>	0
-0.36340076	zero six one </s>	0
-0.36340076	two seven one </s>	0
-0.36340076	three seven one </s>	0
-0.36340076	four seven one </s>	0
-0.36340076	five seven one </s>	0
-0.36340076	six seven one </s>	0
-0.36340076	eight seven one </s>	0
-0.36340076	nine seven one </s>	0
-0.36340076	zero seven one </s>	0
-0.36340076	two eight one </s>	0
-0.36340076	three eight one </s>	0
-0.36340076	four eight one </s>	0
-0.36340076	five eight one </s>	0
-0.36340076	six eight one </s>	0
-0.36340076	seven eight one </s>	0
-0.36340076	nine eight one </s>	0
-0.36340076	zero eight one </s>	0
-0.36340076	two nine one </s>	0
-0.36340076	three nine one </s>	0
-0.36340076	four nine one </s>	0
-0.36340076	five nine one </s>	0
-0.36340076	six nine one </s>	0
-0.36340076	seven nine one </s>	0
-0.36340076	eight nine one </s>	0
-0.36340076	zero nine one </s>	0
-0.36340076	two zero one </s>	0
-0.36340076	three zero one </s>	0
-0.36340076	four zero one </s>	0
-0.36340076	five zero one </s>	0
-0.36340076	six zero one </s>	0
-0.36340076	seven zero one </s>	0
-0.36340076	eight zero one </s>	0
-0.36340076	nine zero one </s>	0
-0.36340076	three one two </s>	0
-0.36340076	four one two </s>	0
-0.36340076	five one two </s>	0
-0.36340076	six one two </s>	0
-0.36340076	seven one two </s>	0
-0.36340076	eight one two </s>	0
-0.36340076	nine one two </s>	0
-0.36340076	zero one two </s>	0
-0.36340076	one three two </s>	0
-0.36340076	four three two </s>	0
-0.36340076	five three two </s>	0
-0.36340076	six three two </s>	0
-0.36340076	seven three two </s>	0
-0.36340076	eight three two </s>	0
-0.36340076	nine three two </s>	0
-0.36340076	zero three two </s>	0
-0.36340076	one four two </s>	0
-0.36340076	three four two </s>	0
-0.36340076	five four two </s>	0
-0.36340076	six four two </s>	0
-0.36340076	seven four two </s>	0
-0.36340076	eight four two </s>	0
-0.36340076	nine four two </s>	0
-0.36340076	zero four two </s>	0
-0.36340076	one five two </s>	0
-0.36340076	three five two </s>	0
-0.36340076	four five two </s>	0
-0.36340076	six five two </s>	0
-0.36340076	seven five two </s>	0
-0.36340076	eight five two </s>	0
-0.36340076	nine five two </s>	0
-0.36340076	zero five two </s>	0
-0.36340076	one six two </s>	0
-0.36340076	three six two </s>	0
-0.36340076	four six two </s>	0
-0.36340076	five six two </s>	0
-0.36340076	seven six two </s>	0
-0.36340076	eight six two </s>	0
-0.36340076	nine six two </s>	0
-0.36340076	zero six two </s>	0
-0.36340076	one seven two </s>	0
-0.36340076	three seven two </s>	0
-0.36340076	four seven two </s>	0
-0.36340076	five seven two </s>	0
-0.36340076	six seven two </s>	0
-0.36340076	eight seven two </s>	0
-0.36340076	nine seven two </s>	0
-0.36340076	zero seven two </s>	0
-0.36340076	one eight two </s>	0
-0.36340076	three eight two </s>	0
-0.36340076	four eight two </s>	0
-0.36340076	five eight two </s>	0
-0.36340076	six eight two </s>	0
-0.36340076	seven eight two </s>	0
-0.36340076	nine eight two </s>	0
-0.36340076	zero eight two </s>	0
-0.36340076	one nine two </s>	0
-0.36340076	three nine two </s>	0
-0.36340076	four nine two </s>	0
-0.36340076	five nine two </s>	0
-0.36340076	six nine two </s>	0
-0.36340076	seven nine two </s>	0
-0.36340076	eight nine two </s>	0
-0.36340076	zero nine two </s>	0
-0.36340076	one zero two </s>	0
-0.36340076	three zero two </s>	0
-0.36340076	four zero two </s>	0
-0.36340076	five zero two </s>	0
-0.36340076	six zero two </s>	0
-0.36340076	seven zero two </s>	0
-0.36340076	eight zero two </s>	0
-0.36340076	nine zero two </s>	0
-0.36340076	two one three </s>	0
-0.36340076	four one three </s>	0
-0.36340076	five one three </s>	0
-0.36340076	six one three </s>	0
-0.36340076	seven one three </s>	0
-0.36340076	eight one three </s>	0
-0.36340076	nine one three </s>	0
-0.36340076	zero one three </s>	0
-0.36340076	one two three </s>	0
-0.36340076	four two three </s>	0
-0.36340076	five two three </s>	0
-0.36340076	six two three </s>	0
-0.36340076	seven two three </s>	0
-0.36340076	eight two three </s>	0
-0.36340076	nine two three </s>	0
-0.36340076	zero two three </s>	0
-0.36340076	one four three </s>	0
-0.36340076	two four three </s>	0
-0.36340076	five four three </s>	0
-0.36340076	six four three </s>	0
-0.36340076	seven four three </s>	0
-0.36340076	eight four three </s>	0
-0.36340076	nine four three </s>	0
-0.36340076	zero four three </s>	0
-0.36340076	one five three </s>	0
-0.36340076	two five three </s>	0
-0.36340076	four five three </s>	0
-0.36340076	six five three </s>	0
-0.36340076	seven five three </s>	0
-0.36340076	eight five three </s>	0
-0.36340076	nine five three </s>	0
-0.36340076	zero five three </s>	0
-0.36340076	one six three </s>	0
-0.36340076	two six three </s>	0
-0.36340076	four six three </s>	0
-0.36340076	five six three </s>	0
-0.36340076	seven six three </s>	0
-0.36340076	eight six three </s>	0
-0.36340076	nine six three </s>	0
-0.36340076	zero six three </s>	0
-0.36340076	one seven three </s>	0
-0.36340076	two seven three </s>	0
-0.36340076	four seven three </s>	0
-0.36340076	five seven three </s>	0
-0.36340076	six seven three </s>	0
-0.36340076	eight seven three </s>	0
-0.36340076	nine seven three </s>	0
-0.36340076	zero seven three </s>	0
-0.36340076	one eight three </s>	0
-0.36340076	two eight three </s>	0
-0.36340076	four eight three </s>	0
-0.36340076	five eight three </s>	0
-0.36340076	six eight three </s>	0
-0.36340076	seven eight three </s>	0
-0.36340076	nine eight three </s>	0
-0.36340076	zero eight three </s>	0
-0.36340076	one nine three </s>	0
-0.36340076	two nine three </s>	0
-0.36340076	four nine three </s>	0
-0.36340076	five nine three </s>	0
-0.36340076	six nine three </s>	0
-0.36340076	seven nine three </s>	0
-0.36340076	eight nine three </s>	0
-0.36340076	zero nine three </s>	0
-0.36340076	one zero three </s>	0
-0.36340076	two zero three </s>	0
-0.36340076	four zero three </s>	0
-0.36340076	five zero three </s>	0
-0.36340076	six zero three </s>	0
-0.36340076	seven zero three </s>	0
-0.36340076	eight zero three </s>	0
-0.36340076	nine zero three </s>	0
-0.36340076	two one four </s>	0
-0.36340076	three one four </s>	0
-0.36340076	five one four </s>	0
-0.36340076	six one four </s>	0
-0.36340076	seven one four </s>	0
-0.36340076	eight one four </s>	0
-0.36340076	nine one four </s>	0
-0.36340076	zero one four </s>	0
-0.36340076	one two four </s>	0
-0.36340076	three two four </s>	0
-0.36340076	five two four </s>	0
-0.36340076	six two four </s>	0
-0.36340076	seven two four </s>	0
-0.36340076	eight two four </s>	0
-0.36340076	nine two four </s>	0
-0.36340076	zero two four </s>	0
-0.36340076	one three four </s>	0
-0.36340076	two three four </s>	0
-0.36340076	five three four </s>	0
-0.36340076	six three four </s>	0
-0.36340076	seven three four </s>	0
-0.36340076	eight three four </s>	0
-0.36340076	nine three four </s>	0
-0.36340076	zero three four </s>	0
-0.36340076	one five four </s>	0
-0.36340076	two five four </s>	0
-0.36340076	three five four </s>	0
-0.36340076	six five four </s>	0
-0.36340076	seven five four </s>	0
-0.36340076	eight five four </s>	0
-0.36340076	nine five four </s>	0
-0.36340076	zero five four </s>	0
-0.36340076	one six four </s>	0
-0.36340076	two six four </s>	0
-0.36340076	three six four </s>	0
-0.36340076	five six four </s>	0
-0.36340076	seven six four </s>	0
-0.36340076	eight six four </s>	0
-0.36340076	nine six four </s>	0
-0.36340076	zero six four </s>	0
-0.36340076	one seven four </s>	0
-0.36340076	two seven four </s>	0
-0.36340076	three seven four </s>	0
-0.36340076	five seven four </s>	0
-0.36340076	six seven four </s>	0
-0.36340076	eight seven four </s>	0
-0.36340076	nine seven four </s>	0
-0.36340076	zero seven four </s>	0
-0.36340076	one eight four </s>	0
-0.36340076	two eight four </s>	0
-0.36340076	three eight four </s>	0
-0.36340076	five eight four </s>	0
-0.36340076	six eight four </s>	0
-0.36340076	seven eight four </s>	0
-0.36340076	nine eight four </s>	0
-0.36340076	zero eight four </s>	0
-0.36340076	one nine four </s>	0
-0.36340076	two nine four </s>	0
-0.36340076	three nine four </s>	0
-0.36340076	five nine four </s>	0
-0.36340076	six nine four </s>	0
-0.36340076	seven nine four </s>	0
-0.36340076	eight nine four </s>	0
-0.36340076	zero nine four </s>	0
-0.36340076	one zero four </s>	0
-0.36340076	two zero four </s>	0
-0.36340076	three zero four </s>	0
-0.36340076	five zero four </s>	0
-0.36340076	six zero four </s>	0
-0.36340076	seven zero four </s>	0
-0.36340076	eight zero four </s>	0
-0.36340076	nine zero four </s>	0
-0.36340076	two one five </s>	0
-0.36340076	three one five </s>	0
-0.36340076	four one five </s>	0
-0.36340076	six one five </s>	0
-0.36340076	seven one five </s>	0
-0.36340076	eight one five </s>	0
-0.36340076	nine one five </s>	0
-0.36340076	zero one five </s>	0
-0.36340076	one two five </s>	0
-0.36340076	three two five </s>	0
-0.36340076	four two five </s>	0
-0.36340076	six two five </s>	0
-0.36340076	seven two five </s>	0
-0.36340076	eight two five </s>	0
-0.36340076	nine two five </s>	0
-0.36340076	zero two five </s>	0
-0.36340076	one three five </s>	0
-0.36340076	two three five </s>	0
-0.36340076	four three five </s>	0
-0.36340076	six three five </s>	0
-0.36340076	seven three five </s>	0
-0.36340076	eight three five </s>	0
-0.36340076	nine three five </s>	0
-0.36340076	zero three five </s>	0
-0.36340076	one four five </s>	0
-0.36340076	two four five </s>	0
-0.36340076	three four five </s>	0
-0.36340076	six four five </s>	0
-0.36340076	seven four five </s>	0
-0.36340076	eight four five </s>	0
-0.36340076	nine four five </s>	0
-0.36340076	zero four five </s>	0
-0.36340076	one six five </s>	0
-0.36340076	two six five </s>	0
-0.36340076	three six five </s>	0
-0.36340076	four six five </s>	0
-0.36340076	seven six five </s>	0
-0.36340076	eight six five </s>	0
-0.36340076	nine six five </s>	0
-0.36340076	zero six five </s>	0
-0.36340076	one seven five </s>	0
-0.36340076	two seven five </s>	0
-0.36340076	three seven five </s>	0
-0.36340076	four seven five </s>	0
-0.36340076	six seven five </s>	0
-0.36340076	eight seven five </s>	0
-0.36340076	nine seven five </s>	0
-0.36340076	zero seven five </s>	0
-0.36340076	one eight five </s>	0
-0.36340076	two eight five </s>	0
-0.36340076	three eight five </s>	0
-0.36340076	four eight five </s>	0
-0.36340076	six eight five </s>	0
-0.36340076	seven eight five </s>	0
-0.36340076	nine eight five </s>	0
-0.36340076	zero eight five </s>	0
-0.36340076	one nine five </s>	0
-0.36340076	two nine five </s>	0
-0.36340076	three nine five </s>	0
-0.36340076	four nine five </s>	0
-0.36340076	six nine five </s>	0
-0.36340076	seven nine five </s>	0
-0.36340076	eight nine five </s>	0
-0.36340076	zero nine five </s>	0
-0.36340076	one zero five </s>	0
-0.36340076	two zero five </s>	0
-0.36340076	three zero five </s>	0
-0.36340076	four zero five </s>	0
-0.36340076	six zero five </s>	0
-0.36340076	seven zero five </s>	0
-0.36340076	eight zero five </s>	0
-0.36340076	nine zero five </s>	0
-0.36340076	two one six </s>	0
-0.36340076	three one six </s>	0
-0.36340076	four one six </s>	0
-0.36340076	five one six </s>	0
-0.36340076	seven one six </s>	0
-0.36340076	eight one six </s>	0
-0.36340076	nine one six </s>	0
-0.36340076	zero one six </s>	0
-0.36340076	one two six </s>	0
-0.36340076	three two six </s>	0
-0.36340076	four two six </s>	0
-0.36340076	five two six </s>	0
-0.36340076	seven two six </s>	0
-0.36340076	eight two six </s>	0
-0.36340076	nine two six </s>	0
-0.36340076	zero two six </s>	0
-0.36340076	one three six </s>	0
-0.36340076	two three six </s>	0
-0.36340076	four three six </s>	0
-0.36340076	five three six </s>	0
-0.36340076	seven three six </s>	0
-0.36340076	eight three six </s>	0
-0.36340076	nine three six </s>	0
-0.36340076	zero three six </s>	0
-0.36340076	one four six </s>	0
-0.36340076	two four six </s>	0
-0.36340076	three four six </s>	0
-0.36340076	five four six </s>	0
-0.36340076	seven four six </s>	0
-0.36340076	eight four six </s>	0
-0.36340076	nine four six </s>	0
-0.36340076	zero four six </s>	0
-0.36340076	one five six </s>	0
-0.36340076	two five six </s>	0
-0.36340076	three five six </s>	0
-0.36340076	four five six </s>	0
-0.36340076	seven five six </s>	0
-0.36340076	eight five six </s>	0
-0.36340076	nine five six </s>	0
-0.36340076	zero five six </s>	0
-0.36340076	one seven six </s>	0
-0.36340076	two seven six </s>	0
-0.36340076	three seven six </s>	0
-0.36340076	four seven six </s>	0
-0.36340076	five seven six </s>	0
-0.36340076	eight seven six </s>	0
-0.36340076	nine seven six </s>	0
-0.36340076	zero seven six </s>	0
-0.36340076	one eight six </s>	0
-0.36340076	two eight six </s>	0
-0.36340076	three eight six </s>	0
-0.36340076	four eight six </s>	0
-0.36340076	five eight six </s>	0
-0.36340076	seven eight six </s>	0
-0.36340076	nine eight six </s>	0
-0.36340076	zero eight six </s>	0
-0.36340076	one nine six </s>	0
-0.36340076	two nine six </s>	0
-0.36340076	three nine six </s>	0
-0.36340076	four nine six </s>	0
-0.36340076	five nine six </s>	0
-0.36340076	seven nine six </s>	0
-0.36340076	eight nine six </s>	0
-0.36340076	zero nine six </s>	0
-0.36340076	one zero six </s>	0
-0.36340076	two zero six </s>	0
-0.36340076	three zero six </s>	0
-0.36340076	four zero six </s>	0
-0.36340076	five zero six </s>	0
-0.36340076	seven zero six </s>	0
-0.36340076	eight zero six </s>	0
-0.36340076	nine zero six </s>	0
-0.36340076	two one seven </s>	0
-0.36340076	three one seven </s>	0
-0.36340076	four one seven </s>	0
-0.36340076	five one seven </s>	0
-0.36340076	six one seven </s>	0
-0.36340076	eight one seven </s>	0
-0.36340076	nine one seven </s>	0
-0.36340076	zero one seven </s>	0
-0.36340076	one two seven </s>	0
-0.36340076	three two seven </s>	0
-0.36340076	four two seven </s>	0
-0.36340076	five two seven </s>	0
-0.36340076	six two seven </s>	0
-0.36340076	eight two seven </s>	0
-0.36340076	nine two seven </s>	0
-0.36340076	zero two seven </s>	0
-0.36340076	one three seven </s>	0
-0.36340076	two three seven </s>	0
-0.36340076	four three seven </s>	0
-0.36340076	five three seven </s>	0
-0.36340076	six three seven </s>	0
-0.36340076	eight three seven </s>	0
-0.36340076	nine three seven </s>	0
-0.36340076	zero three seven </s>	0
-0.36340076	one four seven </s>	0
-0.36340076	two four seven </s>	0
-0.36340076	three four seven </s>	0
-0.36340076	five four seven </s>	0
-0.36340076	six four seven </s>	0
-0.36340076	eight four seven </s>	0
-0.36340076	nine four seven </s>	0
-0.36340076	zero four seven </s>	0
-0.36340076	one five seven </s>	0
-0.36340076	two five seven </s>	0
-0.36340076	three five seven </s>	0
-0.36340076	four five seven </s>	0
-0.36340076	six five seven </s>	0
-0.36340076	eight five seven </s>	0
-0.32706794	nine five seven </s>	0
-0.36340076	zero five seven </s>	0
-0.36340076	one six seven </s>	0
-0.36340076	two six seven </s>	0
-0.36340076	three six seven </s>	0
-0.36340076	four six seven </s>	0
-0.36340076	five six seven </s>	0
-0.36340076	eight six seven </s>	0
-0.36340076	nine six seven </s>	0
-0.36340076	zero six seven </s>	0
-0.36340076	one eight seven </s>	0
-0.36340076	two eight seven </s>	0
-0.36340076	three eight seven </s>	0
-0.36340076	four eight seven </s>	0
-0.36340076	five eight seven </s>	0
-0.36340076	six eight seven </s>	0
-0.36340076	nine eight seven </s>	0
-0.36340076	zero eight seven </s>	0
-0.36340076	one nine seven </s>	0
-0.36340076	two nine seven </s>	0
-0.36340076	three nine seven </s>	0
-0.36340076	four nine seven </s>	0
-0.32706794	five nine seven </s>	0
-0.36340076	six nine seven </s>	0
-0.36340076	eight nine seven </s>	0
-0.36340076	zero nine seven </s>	0
-0.36340076	one zero seven </s>	0
-0.36340076	two zero seven </s>	0
-0.36340076	three zero seven </s>	0
-0.36340076	four zero seven </s>	0
-0.36340076	five zero seven </s>	0
-0.36340076	six zero seven </s>	0
-0.36340076	eight zero seven </s>	0
-0.36340076	nine zero seven </s>	0
-0.36340076	two one eight </s>	0
-0.36340076	three one eight </s>	0
-0.36340076	four one eight </s>	0
-0.36340076	five one eight </s>	0
-0.36340076	six one eight </s>	0
-0.36340076	seven one eight </s>	0
-0.36340076	nine one eight </s>	0
-0.36340076	zero one eight </s>	0
-0.36340076	one two eight </s>	0
-0.36340076	three two eight </s>	0
-0.36340076	four two eight </s>	0
-0.36340076	five two eight </s>	0
-0.36340076	six two eight </s>	0
-0.36340076	seven two eight </s>	0
-0.36340076	nine two eight </s>	0
-0.36340076	zero two eight </s>	0
-0.36340076	one three eight </s>	0
-0.36340076	two three eight </s>	0
-0.36340076	four three eight </s>	0
-0.36340076	five three eight </s>	0
-0.36340076	six three eight </s>	0
-0.36340076	seven three eight </s>	0
-0.36340076	nine three eight </s>	0
-0.36340076	zero three eight </s>	0
-0.36340076	one four eight </s>	0
-0.36340076	two four eight </s>	0
-0.36340076	three four eight </s>	0
-0.36340076	five four eight </s>	0
-0.36340076	six four eight </s>	0
-0.36340076	seven four eight </s>	0
-0.36340076	nine four eight </s>	0
-0.36340076	zero four eight </s>	0
-0.36340076	one five eight </s>	0
-0.36340076	two five eight </s>	0
-0.36340076	three five eight </s>	0
-0.36340076	four five eight </s>	0
-0.36340076	six five eight </s>	0
-0.36340076	seven five eight </s>	0
-0.36340076	nine five eight </s>	0
-0.36340076	zero five eight </s>	0
-0.36340076	one six eight </s>	0
-0.36340076	two six eight </s>	0
-0.36340076	three six eight </s>	0
-0.36340076	four six eight </s>	0
-0.36340076	five six eight </s>	0
-0.36340076	seven six eight </s>	0
-0.36340076	nine six eight </s>	0
-0.36340076	zero six eight </s>	0
-0.36340076	one seven eight </s>	0
-0.36340076	two seven eight </s>	0
-0.36340076	three seven eight </s>	0
-0.36340076	four seven eight </s>	0
-0.36340076	five seven eight </s>	0
-0.36340076	six seven eight </s>	0
-0.36340076	nine seven eight </s>	0
-0.36340076	zero seven eight </s>	0
-0.36340076	one nine eight </s>	0
-0.36340076	two nine eight </s>	0
-0.36340076	three nine eight </s>	0
-0.36340076	four nine eight </s>	0
-0.36340076	five nine eight </s>	0
-0.36340076	six nine eight </s>	0
-0.36340076	seven nine eight </s>	0
-0.36340076	zero nine eight </s>	0
-0.36340076	one zero eight </s>	0
-0.36340076	two zero eight </s>	0
-0.36340076	three zero eight </s>	0
-0.36340076	four zero eight </s>	0
-0.36340076	five zero eight </s>	0
-0.36340076	six zero eight </s>	0
-0.36340076	seven zero eight </s>	0
-0.36340076	nine zero eight </s>	0
-0.36340076	two one nine </s>	0
-0.36340076	three one nine </s>	0
-0.36340076	four one nine </s>	0
-0.36340076	five one nine </s>	0
-0.36340076	six one nine </s>	0
-0.36340076	seven one nine </s>	0
-0.36340076	eight one nine </s>	0
-0.36340076	zero one nine </s>	0
-0.36340076	one two nine </s>	0
-0.36340076	three two nine </s>	0
-0.36340076	four two nine </s>	0
-0.36340076	five two nine </s>	0
-0.36340076	six two nine </s>	0
-0.36340076	seven two nine </s>	0
-0.36340076	eight two nine </s>	0
-0.36340076	zero two nine </s>	0
-0.36340076	one three nine </s>	0
-0.36340076	two three nine </s>	0
-0.36340076	four three nine </s>	0
-0.36340076	five three nine </s>	0
-0.36340076	six three nine </s>	0
-0.36340076	seven three nine </s>	0
-0.36340076	eight three nine </s>	0
-0.36340076	zero three nine </s>	0
-0.36340076	one four nine </s>	0
-0.36340076	two four nine </s>	0
-0.36340076	three four nine </s>	0
-0.36340076	five four nine </s>	0
-0.36340076	six four nine </s>	0
-0.36340076	seven four nine </s>	0
-0.36340076	eight four nine </s>	0
-0.36340076	zero four nine </s>	0
-0.36340076	one five nine </s>	0
-0.36340076	two five nine </s>	0
-0.36340076	three five nine </s>	0
-0.36340076	four five nine </s>	0
-0.32706794	six five nine </s>	0
-0.36340076	seven five nine </s>	0
-0.36340076	eight five nine </s>	0
-0.36340076	zero five nine </s>	0
-0.36340076	one six nine </s>	0
-0.36340076	two six nine </s>	0
-0.36340076	three six nine </s>	0
-0.36340076	four six nine </s>	0
-0.36340076	five six nine </s>	0
-0.36340076	seven six nine </s>	0
-0.36340076	eight six nine </s>	0
-0.36340076	zero six nine </s>	0
-0.36340076	one seven nine </s>	0
-0.36340076	two seven nine </s>	0
-0.36340076	three seven nine </s>	0
-0.36340076	four seven nine </s>	0
-0.36340076	five seven nine </s>	0
-0.36340076	six seven nine </s>	0
-0.36340076	eight seven nine </s>	0
-0.36340076	zero seven nine </s>	0
-0.36340076	one eight nine </s>	0
-0.36340076	two eight nine </s>	0
-0.36340076	three eight nine </s>	0
-0.36340076	four eight nine </s>	0
-0.36340076	five eight nine </s>	0
-0.36340076	six eight nine </s>	0
-0.36340076	seven eight nine </s>	0
-0.36340076	zero eight nine </s>	0
-0.36340076	one zero nine </s>	0
-0.36340076	two zero nine </s>	0
-0.36340076	three zero nine </s>	0
-0.36340076	four zero nine </s>	0
-0.36340076	five zero nine </s>	0
-0.36340076	six zero nine </s>	0
-0.36340076	seven zero nine </s>	0
-0.36340076	eight zero nine </s>	0
-0.048227217	<s> the form </s>	0
-0.048227217	<s> trip done </s>	0
-0.048227217	tell me options </s>	0
-0.048227217	all is good </s>	0
-0.048227217	need new cases </s>	0
-0.048227217	many more cases </s>	0
-0.048227217	container looks fine </s>	0
-0.048227217	the item count </s>	0
-0.048227217	is next stop </s>	0
-0.048227217	my shift ends </s>	0
-0.048227217	it should go </s>	0
-0.048227217	<s> start order </s>	0
-0.36405805	two one zero </s>	0
-0.36405805	three one zero </s>	0
-0.36405805	four one zero </s>	0
-0.36405805	five one zero </s>	0
-0.36405805	six one zero </s>	0
-0.36405805	seven one zero </s>	0
-0.36405805	eight one zero </s>	0
-0.36405805	nine one zero </s>	0
-0.36405805	one two zero </s>	0
-0.36405805	three two zero </s>	0
-0.36405805	four two zero </s>	0
-0.36405805	five two zero </s>	0
-0.36405805	six two zero </s>	0
-0.36405805	seven two zero </s>	0
-0.36405805	eight two zero </s>	0
-0.36405805	nine two zero </s>	0
-0.36405805	one three zero </s>	0
-0.36405805	two three zero </s>	0
-0.36405805	four three zero </s>	0
-0.36405805	five three zero </s>	0
-0.36405805	six three zero </s>	0
-0.36405805	seven three zero </s>	0
-0.36405805	eight three zero </s>	0
-0.36405805	nine three zero </s>	0
-0.36405805	one four zero </s>	0
-0.36405805	two four zero </s>	0
-0.36405805	three four zero </s>	0
-0.36405805	five four zero </s>	0
-0.36405805	six four zero </s>	0
-0.36405805	seven four zero </s>	0
-0.36405805	eight four zero </s>	0
-0.36405805	nine four zero </s>	0
-0.36405805	one five zero </s>	0
-0.36405805	two five zero </s>	0
-0.36405805	three five zero </s>	0
-0.36405805	four five zero </s>	0
-0.36405805	six five zero </s>	0
-0.36405805	seven five zero </s>	0
-0.36405805	eight five zero </s>	0
-0.36405805	nine five zero </s>	0
-0.36405805	one six zero </s>	0
-0.36405805	two six zero </s>	0
-0.36405805	three six zero </s>	0
-0.36405805	four six zero </s>	0
-0.36405805	five six zero </s>	0
-0.36405805	seven six zero </s>	0
-0.36405805	eight six zero </s>	0
-0.36405805	nine six zero </s>	0
-0.36405805	one seven zero </s>	0
-0.36405805	two seven zero </s>	0
-0.36405805	three seven zero </s>	0
-0.36405805	four seven zero </s>	0
-0.36405805	five seven zero </s>	0
-0.36405805	six seven zero </s>	0
-0.36405805	eight seven zero </s>	0
-0.36405805	nine seven zero </s>	0
-0.36405805	one eight zero </s>	0
-0.36405805	two eight zero </s>	0
-0.36405805	three eight zero </s>	0
-0.36405805	four eight zero </s>	0
-0.36405805	five eight zero </s>	0
-0.36405805	six eight zero </s>	0
-0.36405805	seven eight zero </s>	0
-0.36405805	nine eight zero </s>	0
-0.36405805	one nine zero </s>	0
-0.36405805	two nine zero </s>	0
-0.36405805	three nine zero </s>	0
-0.36405805	four nine zero </s>	0
-0.36405805	five nine zero </s>	0
-0.36405805	six nine zero </s>	0
-0.36405805	seven nine zero </s>	0
-0.36405805	eight nine zero </s>	0
-0.91656554	<s> three two one	-0.30103
-1.1308147	four three two one	-0.30103
-1.1308147	five three two one	-0.30103
-1.1308147	six three two one	-0.30103
-1.1308147	seven three two one	-0.30103
-1.1308147	eight three two one	-0.30103
-1.1308147	nine three two one	-0.30103
-1.1308147	zero three two one	-0.30103
-0.91656554	<s> four two one	-0.30103
-1.1308147	three four two one	-0.30103
-1.1308147	five four two one	-0.30103
-1.1308147	six four two one	-0.30103
-1.1308147	seven four two one	-0.30103
-1.1308147	eight four two one	-0.30103
-1.1308147	nine four two one	-0.30103
-1.1308147	zero four two one	-0.30103
-0.91656554	<s> five two one	-0.30103
-1.1308147	three five two one	-0.30103
-1.1308147	four five two one	-0.30103
-1.1308147	six five two one	-0.30103
-1.1308147	seven five two one	-0.30103
-1.1308147	eight five two one	-0.30103
-1.1308147	nine five two one	-0.30103
-1.1308147	zero five two one	-0.30103
-0.91656554	<s> six two one	-0.30103
-1.1308147	three six two one	-0.30103
-1.1308147	four six two one	-0.30103
-1.1308147	five six two one	-0.30103
-1.1308147	seven six two one	-0.30103
-1.1308147	eight six two one	-0.30103
-1.1308147	nine six two one	-0.30103
-1.1308147	zero six two one	-0.30103
-0.91656554	<s> seven two one	-0.30103
-1.1308147	three seven two one	-0.30103
-1.1308147	four seven two one	-0.30103
-1.1308147	five seven two one	-0.30103
-1.1308147	six seven two one	-0.30103
-1.1308147	eight seven two one	-0.30103
-1.1308147	nine seven two one	-0.30103
-1.1308147	zero seven two one	-0.30103
-0.91656554	<s> eight two one	-0.30103
-1.1308147	three eight two one	-0.30103
-1.1308147	four eight two one	-0.30103
-1.1308147	five eight two one	-0.30103
-1.1308147	six eight two one	-0.30103
-1.1308147	seven eight two one	-0.30103
-1.1308147	nine eight two one	-0.30103
-1.1308147	zero eight two one	-0.30103
-0.91656554	<s> nine two one	-0.30103
-1.1308147	three nine two one	-0.30103
-1.1308147	four nine two one	-0.30103
-1.1308147	five nine two one	-0.30103
-1.1308147	six nine two one	-0.30103
-1.1308147	seven nine two one	-0.30103
-1.1308147	eight nine two one	-0.30103
-1.1308147	zero nine two one	-0.30103
-0.91656554	<s> zero two one	-0.30103
-1.1308147	three zero two one	-0.30103
-1.1308147	four zero two one	-0.30103
-1.1308147	five zero two one	-0.30103
-1.1308147	six zero two one	-0.30103
-1.1308147	seven zero two one	-0.30103
-1.1308147	eight zero two one	-0.30103
-1.1308147	nine zero two one	-0.30103
-0.91656554	<s> two three one	-0.30103
-1.1308147	four two three one	-0.30103
-1.1308147	five two three one	-0.30103
-1.1308147	six two three one	-0.30103
-1.1308147	seven two three one	-0.30103
-1.1308147	eight two three one	-0.30103
-1.1308147	nine two three one	-0.30103
-1.1308147	zero two three one	-0.30103
-0.91656554	<s> four three one	-0.30103
-1.1308147	two four three one	-0.30103
-1.1308147	five four three one	-0.30103
-1.1308147	six four three one	-0.30103
-1.1308147	seven four three one	-0.30103
-1.1308147	eight four three one	-0.30103
-1.1308147	nine four three one	-0.30103
-1.1308147	zero four three one	-0.30103
-0.91656554	<s> five three one	-0.30103
-1.1308147	two five three one	-0.30103
-1.1308147	four five three one	-0.30103
-1.1308147	six five three one	-0.30103
-1.1308147	seven five three one	-0.30103
-1.1308147	eight five three one	-0.30103
-1.1308147	nine five three one	-0.30103
-1.1308147	zero five three one	-0.30103
-0.91656554	<s> six three one	-0.30103
-1.1308147	two six three one	-0.30103
-1.1308147	four six three one	-0.30103
-1.1308147	five six three one	-0.30103
-1.1308147	seven six three one	-0.30103
-1.1308147	eight six three one	-0.30103
-1.1308147	nine six three one	-0.30103
-1.1308147	zero six three one	-0.30103
-0.91656554	<s> seven three one	-0.30103
-1.1308147	two seven three one	-0.30103
-1.1308147	four seven three one	-0.30103
-1.1308147	five seven three one	-0.30103
-1.1308147	six seven three one	-0.30103
-1.1308147	eight seven three one	-0.30103
-1.1308147	nine seven three one	-0.30103
-1.1308147	zero seven three one	-0.30103
-0.91656554	<s> eight three one	-0.30103
-1.1308147	two eight three one	-0.30103
-1.1308147	four eight three one	-0.30103
-1.1308147	five eight three one	-0.30103
-1.1308147	six eight three one	-0.30103
-1.1308147	seven eight three one	-0.30103
-1.1308147	nine eight three one	-0.30103
-1.1308147	zero eight three one	-0.30103
-0.91656554	<s> nine three one	-0.30103
-1.1308147	two nine three one	-0.30103
-1.1308147	four nine three one	-0.30103
-1.1308147	five nine three one	-0.30103
-1.1308147	six nine three one	-0.30103
-1.1308147	seven nine three one	-0.30103
-1.1308147	eight nine three one	-0.30103
-1.1308147	zero nine three one	-0.30103
-0.91656554	<s> zero three one	-0.30103
-1.1308147	two zero three one	-0.30103
-1.1308147	four zero three one	-0.30103
-1.1308147	five zero three one	-0.30103
-1.1308147	six zero three one	-0.30103
-1.1308147	seven zero three one	-0.30103
-1.1308147	eight zero three one	-0.30103
-1.1308147	nine zero three one	-0.30103
-0.91656554	<s> two four one	-0.30103
-1.1308147	three two four one	-0.30103
-1.1308147	five two four one	-0.30103
-1.1308147	six two four one	-0.30103
-1.1308147	seven two four one	-0.30103
-1.1308147	eight two four one	-0.30103
-1.1308147	nine two four one	-0.30103
-1.1308147	zero two four one	-0.30103
-0.91656554	<s> three four one	-0.30103
-1.1308147	two three four one	-0.30103
-1.1308147	five three four one	-0.30103
-1.1308147	six three four one	-0.30103
-1.1308147	seven three four one	-0.30103
-1.1308147	eight three four one	-0.30103
-1.1308147	nine three four one	-0.30103
-1.1308147	zero three four one	-0.30103
-0.91656554	<s> five four one	-0.30103
-1.1308147	two five four one	-0.30103
-1.1308147	three five four one	-0.30103
-1.1308147	six five four one	-0.30103
-1.1308147	seven five four one	-0.30103
-1.1308147	eight five four one	-0.30103
-1.1308147	nine five four one	-0.30103
-1.1308147	zero five four one	-0.30103
-0.91656554	<s> six four one	-0.30103
-1.1308147	two six four one	-0.30103
-1.1308147	three six four one	-0.30103
-1.1308147	five six four one	-0.30103
-1.1308147	seven six four one	-0.30103
-1.1308147	eight six four one	-0.30103
-1.1308147	nine six four one	-0.30103
-1.1308147	zero six four one	-0.30103
-0.91656554	<s> seven four one	-0.30103
-1.1308147	two seven four one	-0.30103
-1.1308147	three seven four one	-0.30103
-1.1308147	five seven four one	-0.30103
-1.1308147	six seven four one	-0.30103
-1.1308147	eight seven four one	-0.30103
-1.1308147	nine seven four one	-0.30103
-1.1308147	zero seven four one	-0.30103
-0.91656554	<s> eight four one	-0.30103
-1.1308147	two eight four one	-0.30103
-1.1308147	three eight four one	-0.30103
-1.1308147	five eight four one	-0.30103
-1.1308147	six eight four one	-0.30103
-1.1308147	seven eight four one	-0.30103
-1.1308147	nine eight four one	-0.30103
-1.1308147	zero eight four one	-0.30103
-0.91656554	<s> nine four one	-0.30103
-1.1308147	two nine four one	-0.30103
-1.1308147	three nine four one	-0.30103
-1.1308147	five nine four one	-0.30103
-1.1308147	six nine four one	-0.30103
-1.1308147	seven nine four one	-0.30103
-1.1308147	eight nine four one	-0.30103
-1.1308147	zero nine four one	-0.30103
-0.91656554	<s> zero four one	-0.30103
-1.1308147	two zero four one	-0.30103
-1.1308147	three zero four one	-0.30103
-1.1308147	five zero four one	-0.30103
-1.1308147	six zero four one	-0.30103
-1.1308147	seven zero four one	-0.30103
-1.1308147	eight zero four one	-0.30103
-1.1308147	nine zero four one	-0.30103
-0.91656554	<s> two five one	-0.30103
-1.1308147	three two five one	-0.30103
-1.1308147	four two five one	-0.30103
-1.1308147	six two five one	-0.30103
-1.1308147	seven two five one	-0.30103
-1.1308147	eight two five one	-0.30103
-1.1308147	nine two five one	-0.30103
-1.1308147	zero two five one	-0.30103
-0.91656554	<s> three five one	-0.30103
-1.1308147	two three five one	-0.30103
-1.1308147	four three five one	-0.30103
-1.1308147	six three five one	-0.30103
-1.1308147	seven three five one	-0.30103
-1.1308147	eight three five one	-0.30103
-1.1308147	nine three five one	-0.30103
-1.1308147	zero three five one	-0.30103
-0.91656554	<s> four five one	-0.30103
-1.1308147	two four five one	-0.30103
-1.1308147	three four five one	-0.30103
-1.1308147	six four five one	-0.30103
-1.1308147	seven four five one	-0.30103
-1.1308147	eight four five one	-0.30103
-1.1308147	nine four five one	-0.30103
-1.1308147	zero four five one	-0.30103
-0.9242524	<s> six five one	-0.30103
-1.1308147	two six five one	-0.30103
-1.1308147	three six five one	-0.30103
-1.1308147	four six five one	-0.30103
-1.1308147	seven six five one	-0.30103
-1.1308147	eight six five one	-0.30103
-1.1308147	nine six five one	-0.30103
-1.1308147	zero six five one	-0.30103
-0.91656554	<s> seven five one	-0.30103
-1.1308147	two seven five one	-0.30103
-1.1308147	three seven five one	-0.30103
-1.1308147	four seven five one	-0.30103
-1.1308147	six seven five one	-0.30103
-1.1308147	eight seven five one	-0.30103
-1.1308147	nine seven five one	-0.30103
-1.1308147	zero seven five one	-0.30103
-0.91656554	<s> eight five one	-0.30103
-1.1308147	two eight five one	-0.30103
-1.1308147	three eight five one	-0.30103
-1.1308147	four eight five one	-0.30103
-1.1308147	six eight five one	-0.30103
-1.1308147	seven eight five one	-0.30103
-1.1308147	nine eight five one	-0.30103
-1.1308147	zero eight five one	-0.30103
-0.9242524	<s> nine five one	-0.30103
-1.1308147	two nine five one	-0.30103
-1.1308147	three nine five one	-0.30103
-1.1308147	four nine five one	-0.30103
-1.1308147	six nine five one	-0.30103
-1.1308147	seven nine five one	-0.30103
-1.1308147	eight nine five one	-0.30103
-1.1308147	zero nine five one	-0.30103
-0.91656554	<s> zero five one	-0.30103
-1.1308147	two zero five one	-0.30103
-1.1308147	three zero five one	-0.30103
-1.1308147	four zero five one	-0.30103
-1.1308147	six zero five one	-0.30103
-1.1308147	seven zero five one	-0.30103
-1.1308147	eight zero five one	-0.30103
-1.1308147	nine zero five one	-0.30103
-0.91656554	<s> two six one	-0.30103
-1.1308147	three two six one	-0.30103
-1.1308147	four two six one	-0.30103
-1.1308147	five two six one	-0.30103
-1.1308147	seven two six one	-0.30103
-1.1308147	eight two six one	-0.30103
-1.1308147	nine two six one	-0.30103
-1.1308147	zero two six one	-0.30103
-0.91656554	<s> three six one	-0.30103
-1.1308147	two three six one	-0.30103
-1.1308147	four three six one	-0.30103
-1.1308147	five three six one	-0.30103
-1.1308147	seven three six one	-0.30103
-1.1308147	eight three six one	-0.30103
-1.1308147	nine three six one	-0.30103
-1.1308147	zero three six one	-0.30103
-0.91656554	<s> four six one	-0.30103
-1.1308147	two four six one	-0.30103
-1.1308147	three four six one	-0.30103
-1.1308147	five four six one	-0.30103
-1.1308147	seven four six one	-0.30103
-1.1308147	eight four six one	-0.30103
-1.1308147	nine four six one	-0.30103
-1.1308147	zero four six one	-0.30103
-0.91656554	<s> five six one	-0.30103
-1.1308147	two five six one	-0.30103
-1.1308147	three five six one	-0.30103
-1.1308147	four five six one	-0.30103
-1.1308147	seven five six one	-0.30103
-1.1308147	eight five six one	-0.30103
-1.1308147	nine five six one	-0.30103
-1.1308147	zero five six one	-0.30103
-0.91656554	<s> seven six one	-0.30103
-1.1308147	two seven six one	-0.30103
-1.1308147	three seven six one	-0.30103
-1.1308147	four seven six one	-0.30103
-1.1308147	five seven six one	-0.30103
-1.1308147	eight seven six one	-0.30103
-1.1308147	nine seven six one	-0.30103
-1.1308147	zero seven six one	-0.30103
-0.91656554	<s> eight six one	-0.30103
-1.1308147	two eight six one	-0.30103
-1.1308147	three eight six one	-0.30103
-1.1308147	four eight six one	-0.30103
-1.1308147	five eight six one	-0.30103
-1.1308147	seven eight six one	-0.30103
-1.1308147	nine eight six one	-0.30103
-1.1308147	zero eight six one	-0.30103
-0.91656554	<s> nine six one	-0.30103
-1.1308147	two nine six one	-0.30103
-1.1308147	three nine six one	-0.30103
-1.1308147	four nine six one	-0.30103
-1.1308147	five nine six one	-0.30103
-1.1308147	seven nine six one	-0.30103
-1.1308147	eight nine six one	-0.30103
-1.1308147	zero nine six one	-0.30103
-0.91656554	<s> zero six one	-0.30103
-1.1308147	two zero six one	-0.30103
-1.1308147	three zero six one	-0.30103
-1.1308147	four zero six one	-0.30103
-1.1308147	five zero six one	-0.30103
-1.1308147	seven zero six one	-0.30103
-1.1308147	eight zero six one	-0.30103
-1.1308147	nine zero six one	-0.30103
-0.91656554	<s> two seven one	-0.30103
-1.1308147	three two seven one	-0.30103
-1.1308147	four two seven one	-0.30103
-1.1308147	five two seven one	-0.30103
-1.1308147	six two seven one	-0.30103
-1.1308147	eight two seven one	-0.30103
-1.1308147	nine two seven one	-0.30103
-1.1308147	zero two seven one	-0.30103
-0.91656554	<s> three seven one	-0.30103
-1.1308147	two three seven one	-0.30103
-1.1308147	four three seven one	-0.30103
-1.1308147	five three seven one	-0.30103
-1.1308147	six three seven one	-0.30103
-1.1308147	eight three seven one	-0.30103
-1.1308147	nine three seven one	-0.30103
-1.1308147	zero three seven one	-0.30103
-0.91656554	<s> four seven one	-0.30103
-1.1308147	two four seven one	-0.30103
-1.1308147	three four seven one	-0.30103
-1.1308147	five four seven one	-0.30103
-1.1308147	six four seven one	-0.30103
-1.1308147	eight four seven one	-0.30103
-1.1308147	nine four seven one	-0.30103
-1.1308147	zero four seven one	-0.30103
-0.91656554	<s> five seven one	-0.30103
-1.1308147	two five seven one	-0.30103
-1.1308147	three five seven one	-0.30103
-1.1308147	four five seven one	-0.30103
-1.1308147	six five seven one	-0.30103
-1.1308147	eight five seven one	-0.30103
-1.1607778	nine five seven one	-0.30103
-1.1308147	zero five seven one	-0.30103
-0.91656554	<s> six seven one	-0.30103
-1.1308147	two six seven one	-0.30103
-1.1308147	three six seven one	-0.30103
-1.1308147	four six seven one	-0.30103
-1.1308147	five six seven one	-0.30103
-1.1308147	eight six seven one	-0.30103
-1.1308147	nine six seven one	-0.30103
-1.1308147	zero six seven one	-0.30103
-0.91656554	<s> eight seven one	-0.30103
-1.1308147	two eight seven one	-0.30103
-1.1308147	three eight seven one	-0.30103
-1.1308147	four eight seven one	-0.30103
-1.1308147	five eight seven one	-0.30103
-1.1308147	six eight seven one	-0.30103
-1.1308147	nine eight seven one	-0.30103
-1.1308147	zero eight seven one	-0.30103
-0.91656554	<s> nine seven one	-0.30103
-1.1308147	two nine seven one	-0.30103
-1.1308147	three nine seven one	-0.30103
-1.1308147	four nine seven one	-0.30103
-1.1607778	five nine seven one	-0.30103
-1.1308147	six nine seven one	-0.30103
-1.1308147	eight nine seven one	-0.30103
-1.1308147	zero nine seven one	-0.30103
-0.91656554	<s> zero seven one	-0.30103
-1.1308147	two zero seven one	-0.30103
-1.1308147	three zero seven one	-0.30103
-1.1308147	four zero seven one	-0.30103
-1.1308147	five zero seven one	-0.30103
-1.1308147	six zero seven one	-0.30103
-1.1308147	eight zero seven one	-0.30103
-1.1308147	nine zero seven one	-0.30103
-0.91656554	<s> two eight one	-0.30103
-1.1308147	three two eight one	-0.30103
-1.1308147	four two eight one	-0.30103
-1.1308147	five two eight one	-0.30103
-1.1308147	six two eight one	-0.30103
-1.1308147	seven two eight one	-0.30103
-1.1308147	nine two eight one	-0.30103
-1.1308147	zero two eight one	-0.30103
-0.91656554	<s> three eight one	-0.30103
-1.1308147	two three eight one	-0.30103
-1.1308147	four three eight one	-0.30103
-1.1308147	five three eight one	-0.30103
-1.1308147	six three eight one	-0.30103
-1.1308147	seven three eight one	-0.30103
-1.1308147	nine three eight one	-0.30103
-1.1308147	zero three eight one	-0.30103
-0.91656554	<s> four eight one	-0.30103
-1.1308147	two four eight one	-0.30103
-1.1308147	three four eight one	-0.30103
-1.1308147	five four eight one	-0.30103
-1.1308147	six four eight one	-0.30103
-1.1308147	seven four eight one	-0.30103
-1.1308147	nine four eight one	-0.30103
-1.1308147	zero four eight one	-0.30103
-0.91656554	<s> five eight one	-0.30103
-1.1308147	two five eight one	-0.30103
-1.1308147	three five eight one	-0.30103
-1.1308147	four five eight one	-0.30103
-1.1308147	six five eight one	-0.30103
-1.1308147	seven five eight one	-0.30103
-1.1308147	nine five eight one	-0.30103
-1.1308147	zero five eight one	-0.30103
-0.91656554	<s> six eight one	-0.30103
-1.1308147	two six eight one	-0.30103
-1.1308147	three six eight one	-0.30103
-1.1308147	four six eight one	-0.30103
-1.1308147	five six eight one	-0.30103
-1.1308147	seven six eight one	-0.30103
-1.1308147	nine six eight one	-0.30103
-1.1308147	zero six eight one	-0.30103
-0.91656554	<s> seven eight one	-0.30103
-1.1308147	two seven eight one	-0.30103
-1.1308147	three seven eight one	-0.30103
-1.1308147	four seven eight one	-0.30103
-1.1308147	five seven eight one	-0.30103
-1.1308147	six seven eight one	-0.30103
-1.1308147	nine seven eight one	-0.30103
-1.1308147	zero seven eight one	-0.30103
-0.91656554	<s> nine eight one	-0.30103
-1.1308147	two nine eight one	-0.30103
-1.1308147	three nine eight one	-0.30103
-1.1308147	four nine eight one	-0.30103
-1.1308147	five nine eight one	-0.30103
-1.1308147	six nine eight one	-0.30103
-1.1308147	seven nine eight one	-0.30103
-1.1308147	zero nine eight one	-0.30103
-0.91656554	<s> zero eight one	-0.30103
-1.1308147	two zero eight one	-0.30103
-1.1308147	three zero eight one	-0.30103
-1.1308147	four zero eight one	-0.30103
-1.1308147	five zero eight one	-0.30103
-1.1308147	six zero eight one	-0.30103
-1.1308147	seven zero eight one	-0.30103
-1.1308147	nine zero eight one	-0.30103
-0.91656554	<s> two nine one	-0.30103
-1.1308147	three two nine one	-0.30103
-1.1308147	four two nine one	-0.30103
-1.1308147	five two nine one	-0.30103
-1.1308147	six two nine one	-0.30103
-1.1308147	seven two nine one	-0.30103
-1.1308147	eight two nine one	-0.30103
-1.1308147	zero two nine one	-0.30103
-0.91656554	<s> three nine one	-0.30103
-1.1308147	two three nine one	-0.30103
-1.1308147	four three nine one	-0.30103
-1.1308147	five three nine one	-0.30103
-1.1308147	six three nine one	-0.30103
-1.1308147	seven three nine one	-0.30103
-1.1308147	eight three nine one	-0.30103
-1.1308147	zero three nine one	-0.30103
-0.91656554	<s> four nine one	-0.30103
-1.1308147	two four nine one	-0.30103
-1.1308147	three four nine one	-0.30103
-1.1308147	five four nine one	-0.30103
-1.1308147	six four nine one	-0.30103
-1.1308147	seven four nine one	-0.30103
-1.1308147	eight four nine one	-0.30103
-1.1308147	zero four nine one	-0.30103
-0.9242524	<s> five nine one	-0.30103
-1.1308147	two five nine one	-0.30103
-1.1308147	three five nine one	-0.30103
-1.1308147	four five nine one	-0.30103
-1.1607778	six five nine one	-0.30103
-1.1308147	seven five nine one	-0.30103
-1.1308147	eight five nine one	-0.30103
-1.1308147	zero five nine one	-0.30103
-0.91656554	<s> six nine one	-0.30103
-1.1308147	two six nine one	-0.30103
-1.1308147	three six nine one	-0.30103
-1.1308147	four six nine one	-0.30103
-1.1308147	five six nine one	-0.30103
-1.1308147	seven six nine one	-0.30103
-1.1308147	eight six nine one	-0.30103
-1.1308147	zero six nine one	-0.30103
-0.91656554	<s> seven nine one	-0.30103
-1.1308147	two seven nine one	-0.30103
-1.1308147	three seven nine one	-0.30103
-1.1308147	four seven nine one	-0.30103
-1.1308147	five seven nine one	-0.30103
-1.1308147	six seven nine one	-0.30103
-1.1308147	eight seven nine one	-0.30103
-1.1308147	zero seven nine one	-0.30103
-0.91656554	<s> eight nine one	-0.30103
-1.1308147	two eight nine one	-0.30103
-1.1308147	three eight nine one	-0.30103
-1.1308147	four eight nine one	-0.30103
-1.1308147	five eight nine one	-0.30103
-1.1308147	six eight nine one	-0.30103
-1.1308147	seven eight nine one	-0.30103
-1.1308147	zero eight nine one	-0.30103
-0.91656554	<s> zero nine one	-0.30103
-1.1308147	two zero nine one	-0.30103
-1.1308147	three zero nine one	-0.30103
-1.1308147	four zero nine one	-0.30103
-1.1308147	five zero nine one	-0.30103
-1.1308147	six zero nine one	-0.30103
-1.1308147	seven zero nine one	-0.30103
-1.1308147	eight zero nine one	-0.30103
-0.9164214	<s> two zero one	-0.30103
-1.1304212	three two zero one	-0.30103
-1.1304212	four two zero one	-0.30103
-1.1304212	five two zero one	-0.30103
-1.1304212	six two zero one	-0.30103
-1.1304212	seven two zero one	-0.30103
-1.1304212	eight two zero one	-0.30103
-1.1304212	nine two zero one	-0.30103
-0.9164214	<s> three zero one	-0.30103
-1.1304212	two three zero one	-0.30103
-1.1304212	four three zero one	-0.30103
-1.1304212	five three zero one	-0.30103
-1.1304212	six three zero one	-0.30103
-1.1304212	seven three zero one	-0.30103
-1.1304212	eight three zero one	-0.30103
-1.1304212	nine three zero one	-0.30103
-0.9164214	<s> four zero one	-0.30103
-1.1304212	two four zero one	-0.30103
-1.1304212	three four zero one	-0.30103
-1.1304212	five four zero one	-0.30103
-1.1304212	six four zero one	-0.30103
-1.1304212	seven four zero one	-0.30103
-1.1304212	eight four zero one	-0.30103
-1.1304212	nine four zero one	-0.30103
-0.9164214	<s> five zero one	-0.30103
-1.1304212	two five zero one	-0.30103
-1.1304212	three five zero one	-0.30103
-1.1304212	four five zero one	-0.30103
-1.1304212	six five zero one	-0.30103
-1.1304212	seven five zero one	-0.30103
-1.1304212	eight five zero one	-0.30103
-1.1304212	nine five zero one	-0.30103
-0.9164214	<s> six zero one	-0.30103
-1.1304212	two six zero one	-0.30103
-1.1304212	three six zero one	-0.30103
-1.1304212	four six zero one	-0.30103
-1.1304212	five six zero one	-0.30103
-1.1304212	seven six zero one	-0.30103
-1.1304212	eight six zero one	-0.30103
-1.1304212	nine six zero one	-0.30103
-0.9164214	<s> seven zero one	-0.30103
-1.1304212	two seven zero one	-0.30103
-1.1304212	three seven zero one	-0.30103
-1.1304212	four seven zero one	-0.30103
-1.1304212	five seven zero one	-0.30103
-1.1304212	six seven zero one	-0.30103
-1.1304212	eight seven zero one	-0.30103
-1.1304212	nine seven zero one	-0.30103
-0.9164214	<s> eight zero one	-0.30103
-1.1304212	two eight zero one	-0.30103
-1.1304212	three eight zero one	-0.30103
-1.1304212	four eight zero one	-0.30103
-1.1304212	five eight zero one	-0.30103
-1.1304212	six eight zero one	-0.30103
-1.1304212	seven eight zero one	-0.30103
-1.1304212	nine eight zero one	-0.30103
-0.9164214	<s> nine zero one	-0.30103
-1.1304212	two nine zero one	-0.30103
-1.1304212	three nine zero one	-0.30103
-1.1304212	four nine zero one	-0.30103
-1.1304212	five nine zero one	-0.30103
-1.1304212	six nine zero one	-0.30103
-1.1304212	seven nine zero one	-0.30103
-1.1304212	eight nine zero one	-0.30103
-0.91656554	<s> three one two	-0.30103
-1.1308147	four three one two	-0.30103
-1.1308147	five three one two	-0.30103
-1.1308147	six three one two	-0.30103
-1.1308147	seven three one two	-0.30103
-1.1308147	eight three one two	-0.30103
-1.1308147	nine three one two	-0.30103
-1.1308147	zero three one two	-0.30103
-0.91656554	<s> four one two	-0.30103
-1.1308147	three four one two	-0.30103
-1.1308147	five four one two	-0.30103
-1.1308147	six four one two	-0.30103
-1.1308147	seven four one two	-0.30103
-1.1308147	eight four one two	-0.30103
-1.1308147	nine four one two	-0.30103
-1.1308147	zero four one two	-0.30103
-0.91656554	<s> five one two	-0.30103
-1.1308147	three five one two	-0.30103
-1.1308147	four five one two	-0.30103
-1.1308147	six five one two	-0.30103
-1.1308147	seven five one two	-0.30103
-1.1308147	eight five one two	-0.30103
-1.1308147	nine five one two	-0.30103
-1.1308147	zero five one two	-0.30103
-0.91656554	<s> six one two	-0.30103
-1.1308147	three six one two	-0.30103
-1.1308147	four six one two	-0.30103
-1.1308147	five six one two	-0.30103
-1.1308147	seven six one two	-0.30103
-1.1308147	eight six one two	-0.30103
-1.1308147	nine six one two	-0.30103
-1.1308147	zero six one two	-0.30103
-0.91656554	<s> seven one two	-0.30103
-1.1308147	three seven one two	-0.30103
-1.1308147	four seven one two	-0.30103
-1.1308147	five seven one two	-0.30103
-1.1308147	six seven one two	-0.30103
-1.1308147	eight seven one two	-0.30103
-1.1308147	nine seven one two	-0.30103
-1.1308147	zero seven one two	-0.30103
-0.91656554	<s> eight one two	-0.30103
-1.1308147	three eight one two	-0.30103
-1.1308147	four eight one two	-0.30103
-1.1308147	five eight one two	-0.30103
-1.1308147	six eight one two	-0.30103
-1.1308147	seven eight one two	-0.30103
-1.1308147	nine eight one two	-0.30103
-1.1308147	zero eight one two	-0.30103
-0.91656554	<s> nine one two	-0.30103
-1.1308147	three nine one two	-0.30103
-1.1308147	four nine one two	-0.30103
-1.1308147	five nine one two	-0.30103
-1.1308147	six nine one two	-0.30103
-1.1308147	seven nine one two	-0.30103
-1.1308147	eight nine one two	-0.30103
-1.1308147	zero nine one two	-0.30103
-0.91656554	<s> zero one two	-0.30103
-1.1308147	three zero one two	-0.30103
-1.1308147	four zero one two	-0.30103
-1.1308147	five zero one two	-0.30103
-1.1308147	six zero one two	-0.30103
-1.1308147	seven zero one two	-0.30103
-1.1308147	eight zero one two	-0.30103
-1.1308147	nine zero one two	-0.30103
-0.91656554	<s> one three two	-0.30103
-1.1308147	four one three two	-0.30103
-1.1308147	five one three two	-0.30103
-1.1308147	six one three two	-0.30103
-1.1308147	seven one three two	-0.30103
-1.1308147	eight one three two	-0.30103
-1.1308147	nine one three two	-0.30103
-1.1308147	zero one three two	-0.30103
-0.91656554	<s> four three two	-0.30103
-1.1308147	one four three two	-0.30103
-1.1308147	five four three two	-0.30103
-1.1308147	six four three two	-0.30103
-1.1308147	seven four three two	-0.30103
-1.1308147	eight four three two	-0.30103
-1.1308147	nine four three two	-0.30103
-1.1308147	zero four three two	-0.30103
-0.91656554	<s> five three two	-0.30103
-1.1308147	one five three two	-0.30103
-1.1308147	four five three two	-0.30103
-1.1308147	six five three two	-0.30103
-1.1308147	seven five three two	-0.30103
-1.1308147	eight five three two	-0.30103
-1.1308147	nine five three two	-0.30103
-1.1308147	zero five three two	-0.30103
-0.91656554	<s> six three two	-0.30103
-1.1308147	one six three two	-0.30103
-1.1308147	four six three two	-0.30103
-1.1308147	five six three two	-0.30103
-1.1308147	seven six three two	-0.30103
-1.1308147	eight six three two	-0.30103
-1.1308147	nine six three two	-0.30103
-1.1308147	zero six three two	-0.30103
-0.91656554	<s> seven three two	-0.30103
-1.1308147	one seven three two	-0.30103
-1.1308147	four seven three two	-0.30103
-1.1308147	five seven three two	-0.30103
-1.1308147	six seven three two	-0.30103
-1.1308147	eight seven three two	-0.30103
-1.1308147	nine seven three two	-0.30103
-1.1308147	zero seven three two	-0.30103
-0.91656554	<s> eight three two	-0.30103
-1.1308147	one eight three two	-0.30103
-1.1308147	four eight three two	-0.30103
-1.1308147	five eight three two	-0.30103
-1.1308147	six eight three two	-0.30103
-1.1308147	seven eight three two	-0.30103
-1.1308147	nine eight three two	-0.30103
-1.1308147	zero eight three two	-0.30103
-0.91656554	<s> nine three two	-0.30103
-1.1308147	one nine three two	-0.30103
-1.1308147	four nine three two	-0.30103
-1.1308147	five nine three two	-0.30103
-1.1308147	six nine three two	-0.30103
-1.1308147	seven nine three two	-0.30103
-1.1308147	eight nine three two	-0.30103
-1.1308147	zero nine three two	-0.30103
-0.91656554	<s> zero three two	-0.30103
-1.1308147	one zero three two	-0.30103
-1.1308147	four zero three two	-0.30103
-1.1308147	five zero three two	-0.30103
-1.1308147	six zero three two	-0.30103
-1.1308147	seven zero three two	-0.30103
-1.1308147	eight zero three two	-0.30103
-1.1308147	nine zero three two	-0.30103
-0.91656554	<s> one four two	-0.30103
-1.1308147	three one four two	-0.30103
-1.1308147	five one four two	-0.30103
-1.1308147	six one four two	-0.30103
-1.1308147	seven one four two	-0.30103
-1.1308147	eight one four two	-0.30103
-1.1308147	nine one four two	-0.30103
-1.1308147	zero one four two	-0.30103
-0.91656554	<s> three four two	-0.30103
-1.1308147	one three four two	-0.30103
-1.1308147	five three four two	-0.30103
-1.1308147	six three four two	-0.30103
-1.1308147	seven three four two	-0.30103
-1.1308147	eight three four two	-0.30103
-1.1308147	nine three four two	-0.30103
-1.1308147	zero three four two	-0.30103
-0.91656554	<s> five four two	-0.30103
-1.1308147	one five four two	-0.30103
-1.1308147	three five four two	-0.30103
-1.1308147	six five four two	-0.30103
-1.1308147	seven five four two	-0.30103
-1.1308147	eight five four two	-0.30103
-1.1308147	nine five four two	-0.30103
-1.1308147	zero five four two	-0.30103
-0.91656554	<s> six four two	-0.30103
-1.1308147	one six four two	-0.30103
-1.1308147	three six four two	-0.30103
-1.1308147	five six four two	-0.30103
-1.1308147	seven six four two	-0.30103
-1.1308147	eight six four two	-0.30103
-1.1308147	nine six four two	-0.30103
-1.1308147	zero six four two	-0.30103
-0.91656554	<s> seven four two	-0.30103
-1.1308147	one seven four two	-0.30103
-1.1308147	three seven four two	-0.30103
-1.1308147	five seven four two	-0.30103
-1.1308147	six seven four two	-0.30103
-1.1308147	eight seven four two	-0.30103
-1.1308147	nine seven four two	-0.30103
-1.1308147	zero seven four two	-0.30103
-0.91656554	<s> eight four two	-0.30103
-1.1308147	one eight four two	-0.30103
-1.1308147	three eight four two	-0.30103
-1.1308147	five eight four two	-0.30103
-1.1308147	six eight four two	-0.30103
-1.1308147	seven eight four two	-0.30103
-1.1308147	nine eight four two	-0.30103
-1.1308147	zero eight four two	-0.30103
-0.91656554	<s> nine four two	-0.30103
-1.1308147	one nine four two	-0.30103
-1.1308147	three nine four two	-0.30103
-1.1308147	five nine four two	-0.30103
-1.1308147	six nine four two	-0.30103
-1.1308147	seven nine four two	-0.30103
-1.1308147	eight nine four two	-0.30103
-1.1308147	zero nine four two	-0.30103
-0.91656554	<s> zero four two	-0.30103
-1.1308147	one zero four two	-0.30103
-1.1308147	three zero four two	-0.30103
-1.1308147	five zero four two	-0.30103
-1.1308147	six zero four two	-0.30103
-1.1308147	seven zero four two	-0.30103
-1.1308147	eight zero four two	-0.30103
-1.1308147	nine zero four two	-0.30103
-0.91656554	<s> one five two	-0.30103
-1.1308147	three one five two	-0.30103
-1.1308147	four one five two	-0.30103
-1.1308147	six one five two	-0.30103
-1.1308147	seven one five two	-0.30103
-1.1308147	eight one five two	-0.30103
-1.1308147	nine one five two	-0.30103
-1.1308147	zero one five two	-0.30103
-0.91656554	<s> three five two	-0.30103
-1.1308147	one three five two	-0.30103
-1.1308147	four three five two	-0.30103
-1.1308147	six three five two	-0.30103
-1.1308147	seven three five two	-0.30103
-1.1308147	eight three five two	-0.30103
-1.1308147	nine three five two	-0.30103
-1.1308147	zero three five two	-0.30103
-0.91656554	<s> four five two	-0.30103
-1.1308147	one four five two	-0.30103
-1.1308147	three four five two	-0.30103
-1.1308147	six four five two	-0.30103
-1.1308147	seven four five two	-0.30103
-1.1308147	eight four five two	-0.30103
-1.1308147	nine four five two	-0.30103
-1.1308147	zero four five two	-0.30103
-0.9242524	<s> six five two	-0.30103
-1.1308147	one six five two	-0.30103
-1.1308147	three six five two	-0.30103
-1.1308147	four six five two	-0.30103
-1.1308147	seven six five two	-0.30103
-1.1308147	eight six five two	-0.30103
-1.1308147	nine six five two	-0.30103
-1.1308147	zero six five two	-0.30103
-0.91656554	<s> seven five two	-0.30103
-1.1308147	one seven five two	-0.30103
-1.1308147	three seven five two	-0.30103
-1.1308147	four seven five two	-0.30103
-1.1308147	six seven five two	-0.30103
-1.1308147	eight seven five two	-0.30103
-1.1308147	nine seven five two	-0.30103
-1.1308147	zero seven five two	-0.30103
-0.91656554	<s> eight five two	-0.30103
-1.1308147	one eight five two	-0.30103
-1.1308147	three eight five two	-0.30103
-1.1308147	four eight five two	-0.30103
-1.1308147	six eight five two	-0.30103
-1.1308147	seven eight five two	-0.30103
-1.1308147	nine eight five two	-0.30103
-1.1308147	zero eight five two	-0.30103
-0.9242524	<s> nine five two	-0.30103
-1.1308147	one nine five two	-0.30103
-1.1308147	three nine five two	-0.30103
-1.1308147	four nine five two	-0.30103
-1.1308147	six nine five two	-0.30103
-1.1308147	seven nine five two	-0.30103
-1.1308147	eight nine five two	-0.30103
-1.1308147	zero nine five two	-0.30103
-0.91656554	<s> zero five two	-0.30103
-1.1308147	one zero five two	-0.30103
-1.1308147	three zero five two	-0.30103
-1.1308147	four zero five two	-0.30103
-1.1308147	six zero five two	-0.30103
-1.1308147	seven zero five two	-0.30103
-1.1308147	eight zero five two	-0.30103
-1.1308147	nine zero five two	-0.30103
-0.91656554	<s> one six two	-0.30103
-1.1308147	three one six two	-0.30103
-1.1308147	four one six two	-0.30103
-1.1308147	five one six two	-0.30103
-1.1308147	seven one six two	-0.30103
-1.1308147	eight one six two	-0.30103
-1.1308147	nine one six two	-0.30103
-1.1308147	zero one six two	-0.30103
-0.91656554	<s> three six two	-0.30103
-1.1308147	one three six two	-0.30103
-1.1308147	four three six two	-0.30103
-1.1308147	five three six two	-0.30103
-1.1308147	seven three six two	-0.30103
-1.1308147	eight three six two	-0.30103
-1.1308147	nine three six two	-0.30103
-1.1308147	zero three six two	-0.30103
-0.91656554	<s> four six two	-0.30103
-1.1308147	one four six two	-0.30103
-1.1308147	three four six two	-0.30103
-1.1308147	five four six two	-0.30103
-1.1308147	seven four six two	-0.30103
-1.1308147	eight four six two	-0.30103
-1.1308147	nine four six two	-0.30103
-1.1308147	zero four six two	-0.30103
-0.91656554	<s> five six two	-0.30103
-1.1308147	one five six two	-0.30103
-1.1308147	three five six two	-0.30103
-1.1308147	four five six two	-0.30103
-1.1308147	seven five six two	-0.30103
-1.1308147	eight five six two	-0.30103
-1.1308147	nine five six two	-0.30103
-1.1308147	zero five six two	-0.30103
-0.91656554	<s> seven six two	-0.30103
-1.1308147	one seven six two	-0.30103
-1.1308147	three seven six two	-0.30103
-1.1308147	four seven six two	-0.30103
-1.1308147	five seven six two	-0.30103
-1.1308147	eight seven six two	-0.30103
-1.1308147	nine seven six two	-0.30103
-1.1308147	zero seven six two	-0.30103
-0.91656554	<s> eight six two	-0.30103
-1.1308147	one eight six two	-0.30103
-1.1308147	three eight six two	-0.30103
-1.1308147	four eight six two	-0.30103
-1.1308147	five eight six two	-0.30103
-1.1308147	seven eight six two	-0.30103
